5.689254496246576309e-03,4.653275385499000549e-02,4.552960768342018127e-02,-4.200175032019615173e-02,1.171514391899108887e-02,-6.350725144147872925e-02,-5.211764480918645859e-03,-8.075282722711563110e-02,-2.017866633832454681e-02,-5.740463361144065857e-02
-8.889940567314624786e-03,1.081505697220563889e-02,3.367066383361816406e-03,4.834010824561119080e-02,-2.634279616177082062e-02,1.158714294433593750e-02,2.081681229174137115e-02,-3.236189112067222595e-02,1.500672777183353901e-03,-6.520748883485794067e-02
2.136046811938285828e-02,-1.761898584663867950e-02,6.856613606214523315e-02,5.259238556027412415e-02,1.832451485097408295e-02,2.142317779362201691e-02,3.332592919468879700e-02,-3.089402057230472565e-02,9.191018529236316681e-03,3.230303153395652771e-02
7.589995115995407104e-02,3.893685340881347656e-02,8.340866118669509888e-02,1.855309866368770599e-02,7.944376021623611450e-02,6.090424582362174988e-02,-5.037300661206245422e-02,2.063151262700557709e-02,4.279397055506706238e-02,7.626070827245712280e-02
4.760310426354408264e-02,8.405090123414993286e-02,6.755427271127700806e-02,1.456482242792844772e-02,-4.210301116108894348e-02,-7.920011132955551147e-02,-8.691047877073287964e-02,-8.618558943271636963e-02,-6.718589458614587784e-03,-2.181112580001354218e-02
2.732921577990055084e-02,-2.836622297763824463e-03,-5.944013968110084534e-02,4.555620625615119934e-02,6.746156606823205948e-03,-3.782759606838226318e-02,6.742282304912805557e-03,3.371514007449150085e-02,8.237063139677047729e-02,-3.599834442138671875e-02
5.246959999203681946e-02,-8.371968567371368408e-02,7.903461903333663940e-02,-5.135968700051307678e-02,5.110248550772666931e-02,-4.569543991237878799e-03,7.655122876167297363e-02,5.337648466229438782e-02,-8.101940900087356567e-02,-9.927377104759216309e-03
-2.280119620263576508e-02,-6.738693267107009888e-02,6.380409747362136841e-02,5.801394954323768616e-02,-1.321977097541093826e-02,-4.136761277914047241e-02,-2.114226482808589935e-02,-6.316810846328735352e-02,-2.011071890592575073e-02,8.151472359895706177e-02
-4.280492290854454041e-02,-6.025478616356849670e-02,-1.764625124633312225e-02,-5.199261382222175598e-02,-6.524591892957687378e-02,6.141856685280799866e-02,-2.183285914361476898e-02,-6.731475144624710083e-02,-5.003967788070440292e-03,-6.961827725172042847e-02
3.385796770453453064e-02,7.632792741060256958e-02,-2.808738686144351959e-02,5.817190185189247131e-02,-4.697426781058311462e-02,-1.326704490929841995e-02,-2.269070781767368317e-02,8.138180524110794067e-02,5.715205892920494080e-02,-5.914724990725517273e-02
-8.566186577081680298e-02,7.557758688926696777e-02,-4.909105226397514343e-02,3.791772527620196342e-03,-4.035440832376480103e-02,-1.414581318385899067e-03,-3.541121026501059532e-03,5.695850029587745667e-02,6.942237168550491333e-02,4.820317402482032776e-02
-1.452622842043638229e-02,-6.021819636225700378e-02,8.849509060382843018e-03,-6.934553384780883789e-03,6.185717508196830750e-02,9.263475425541400909e-03,4.136346653103828430e-02,5.995244160294532776e-02,4.850060120224952698e-02,-5.711525306105613708e-02
-4.009672999382019043e-02,-5.528265610337257385e-02,-4.909829795360565186e-02,-5.333368107676506042e-02,-6.843309104442596436e-02,6.798513233661651611e-02,-2.853191830217838287e-02,-3.106920048594474792e-02,5.119664222002029419e-02,-6.297369021922349930e-03
1.823145546950399876e-03,-5.320690572261810303e-02,-8.439693599939346313e-02,-1.070741098374128342e-02,-4.185799881815910339e-02,1.586575061082839966e-02,5.850970745086669922e-02,-2.371245622634887695e-02,-7.500500977039337158e-02,7.348103821277618408e-02
5.049243196845054626e-02,1.682298630475997925e-02,2.387098409235477448e-02,5.597246065735816956e-02,-7.821209728717803955e-02,1.308234129101037979e-02,1.408335287123918533e-02,7.166220247745513916e-02,1.782619766891002655e-02,-2.623902261257171631e-02
5.588285252451896667e-02,-6.369896978139877319e-02,-4.238125868141651154e-03,5.191124603152275085e-02,-3.687721490859985352e-02,-9.307843632996082306e-03,-9.948701597750186920e-03,-5.538531020283699036e-02,-9.385500103235244751e-03,-5.036578327417373657e-02
5.258120968937873840e-02,-8.673354983329772949e-02,-2.210666798055171967e-02,2.077102847397327423e-02,-1.484520826488733292e-02,5.334347113966941833e-02,-8.239404112100601196e-02,-4.352785274386405945e-02,1.078848447650671005e-02,2.463321946561336517e-02
2.102848328649997711e-02,4.593566060066223145e-03,3.884494677186012268e-02,-7.555699348449707031e-02,-8.108749240636825562e-02,1.273764204233884811e-02,3.726413100957870483e-02,5.684680864214897156e-02,3.494874015450477600e-02,8.271842449903488159e-02
-6.406105309724807739e-02,5.016237031668424606e-03,-5.895569548010826111e-02,2.100477740168571472e-02,7.419288158416748047e-04,5.341544747352600098e-03,6.730429083108901978e-02,-4.060973972082138062e-02,-8.557279407978057861e-02,-6.992920488119125366e-02
3.169082477688789368e-02,2.611144678667187691e-03,-4.524543508887290955e-02,6.573490053415298462e-02,5.078732594847679138e-02,-4.004935547709465027e-02,8.408219367265701294e-02,4.365489259362220764e-02,6.046905741095542908e-02,6.867348402738571167e-02
-5.616187676787376404e-02,1.931414444698020816e-04,-3.364226082339882851e-03,4.821211472153663635e-02,8.283640444278717041e-02,3.297676518559455872e-02,4.060523957014083862e-02,9.553514420986175537e-03,8.559017628431320190e-02,5.396446678787469864e-03
5.982801690697669983e-02,1.384561974555253983e-02,-4.763997718691825867e-02,-8.196483552455902100e-02,-5.838290229439735413e-02,4.436383396387100220e-02,3.392539918422698975e-02,-2.285048365592956543e-03,-5.946017429232597351e-02,-1.281339582055807114e-02
2.285756357014179230e-02,3.879829868674278259e-02,1.171259302645921707e-02,3.746851906180381775e-02,6.671582907438278198e-02,-2.393820090219378471e-03,-5.108087882399559021e-02,6.522522121667861938e-02,-3.292747214436531067e-02,1.723716221749782562e-02
-7.028543949127197266e-02,-6.077267602086067200e-02,-9.959413437172770500e-04,3.448061645030975342e-02,4.630975052714347839e-02,5.220189318060874939e-02,-4.732273146510124207e-02,-2.299085445702075958e-02,-6.733671575784683228e-02,3.708161041140556335e-02
-5.264646932482719421e-02,7.213144749402999878e-02,5.770437046885490417e-02,-6.404788047075271606e-02,-3.713843226432800293e-02,1.354785729199647903e-02,2.748761326074600220e-02,2.630092203617095947e-03,-2.065580338239669800e-02,-6.799394637346267700e-02
6.704852730035781860e-02,5.916304513812065125e-02,-7.125730067491531372e-02,1.034867018461227417e-02,7.898207008838653564e-02,-3.755442099645733833e-03,3.641106560826301575e-02,-1.971141807734966278e-02,-4.468262568116188049e-02,6.422876566648483276e-02
-7.268001884222030640e-02,-4.828326031565666199e-02,-4.164151474833488464e-02,-3.085072897374629974e-02,4.036267846822738647e-02,-8.180051296949386597e-02,3.104791045188903809e-02,-3.026679344475269318e-02,-2.030873112380504608e-02,4.031819850206375122e-02
3.296074643731117249e-02,7.491520047187805176e-02,6.593085080385208130e-02,6.576531380414962769e-02,8.070563524961471558e-02,-5.315966531634330750e-02,8.498614281415939331e-02,-7.247900217771530151e-02,2.544619143009185791e-02,6.488831248134374619e-03
7.200806587934494019e-02,-3.871932253241539001e-02,-6.245032325387001038e-02,-4.146680701524019241e-03,8.027493208646774292e-02,4.748023673892021179e-02,-3.303080424666404724e-02,-2.846416085958480835e-02,-4.505715891718864441e-02,1.079074689187109470e-03
-2.652045525610446930e-02,-4.062110930681228638e-02,-3.352127596735954285e-02,-6.817033141851425171e-02,-5.793420714326202869e-04,-8.247758448123931885e-02,-5.273640528321266174e-02,-5.365334823727607727e-02,-1.694928854703903198e-02,-5.071871355175971985e-02
-3.764032945036888123e-02,7.872288674116134644e-02,-3.841104358434677124e-02,2.200244739651679993e-02,4.163710027933120728e-02,1.107675861567258835e-02,2.253953181207180023e-02,-3.021493367850780487e-02,1.329477876424789429e-02,4.074531048536300659e-02
5.632102862000465393e-02,-4.951424524188041687e-02,-4.050039127469062805e-02,5.052186921238899231e-02,-7.981821149587631226e-02,-2.130400575697422028e-02,-5.582467094063758850e-02,-5.855083093047142029e-02,-2.181548438966274261e-02,7.363199442625045776e-02
-3.756128624081611633e-02,-1.045515853911638260e-02,1.254810392856597900e-02,2.295315079391002655e-02,1.880931854248046875e-02,1.601743395440280437e-03,-1.388509199023246765e-02,4.838266875594854355e-03,-1.939494349062442780e-02,7.951005548238754272e-02
7.803767174482345581e-02,-2.816263772547245026e-02,5.875844880938529968e-02,-8.406028896570205688e-02,-3.647949174046516418e-02,7.716637104749679565e-03,-2.733081392943859100e-02,2.207501605153083801e-02,7.573723047971725464e-02,2.916166558861732483e-02
-1.014972850680351257e-02,-6.716714054346084595e-02,9.833215735852718353e-03,-7.214504480361938477e-02,4.001794382929801941e-02,-2.079312503337860107e-02,-2.518998831510543823e-02,-4.525903612375259399e-02,7.922706007957458496e-02,-8.804437704384326935e-03
-1.564063318073749542e-02,6.706501543521881104e-02,-7.192271202802658081e-02,-2.922860532999038696e-02,7.667497545480728149e-02,1.493768300861120224e-02,5.998037382960319519e-02,6.138950586318969727e-02,4.718803986907005310e-02,-3.948934376239776611e-02
-6.090063229203224182e-02,-5.943063180893659592e-03,3.882808610796928406e-02,-5.103071406483650208e-02,-2.635503374040126801e-02,5.930784717202186584e-02,5.979496240615844727e-02,2.652892656624317169e-02,-5.698726698756217957e-02,7.973081618547439575e-02
-7.351340900640934706e-05,8.277603238821029663e-02,-6.239612028002738953e-02,6.847993470728397369e-03,-5.216300114989280701e-02,-5.205892026424407959e-02,-4.375312849879264832e-02,-5.180316418409347534e-02,-1.236560568213462830e-02,-3.385026007890701294e-02
3.035165369510650635e-02,-1.599459908902645111e-02,-7.899772375822067261e-02,8.576115220785140991e-02,-4.828388243913650513e-02,8.471476286649703979e-02,2.310603298246860504e-02,-2.144908346235752106e-02,-4.974407330155372620e-02,3.408009186387062073e-02
2.285480499267578125e-02,-2.658181078732013702e-02,-5.516092106699943542e-02,9.129846468567848206e-03,-7.115186750888824463e-02,7.290650391951203346e-04,8.507683873176574707e-02,4.310100898146629333e-02,2.741179242730140686e-02,-2.495343424379825592e-02
4.088296368718147278e-02,-8.958926424384117126e-03,-3.020087070763111115e-02,-3.771199658513069153e-02,-2.492784708738327026e-02,1.819930784404277802e-02,-6.173205748200416565e-02,3.004854917526245117e-02,-2.348386682569980621e-02,6.856356561183929443e-02
-6.329753249883651733e-02,5.537357181310653687e-02,-8.564434945583343506e-02,-6.803417950868606567e-02,1.439203228801488876e-02,7.239528000354766846e-02,7.332225888967514038e-02,-7.389638572931289673e-02,7.419715076684951782e-02,1.021660305559635162e-02
7.144924998283386230e-02,4.088647291064262390e-02,1.699562929570674896e-02,9.946863865479826927e-04,1.962241530418395996e-02,8.094873279333114624e-02,7.689464092254638672e-02,8.541051298379898071e-02,-6.977389007806777954e-02,-7.252453267574310303e-02
-8.066256344318389893e-02,-5.898456647992134094e-02,-2.994008362293243408e-03,-8.053481578826904297e-02,-5.098870024085044861e-02,-3.744395449757575989e-02,3.188102692365646362e-02,4.528521373867988586e-02,8.207321166992187500e-02,3.767620772123336792e-02
-7.891069352626800537e-02,1.038048975169658661e-02,-6.223772466182708740e-02,4.627897962927818298e-02,4.957065358757972717e-02,4.304962232708930969e-03,-3.976585716009140015e-02,-8.151969313621520996e-02,-6.833171099424362183e-02,-4.291912540793418884e-02
3.694607317447662354e-02,2.382278628647327423e-02,6.290441751480102539e-02,-4.065136983990669250e-02,-7.719863951206207275e-02,-8.415085077285766602e-02,-2.183129638433456421e-02,7.303100824356079102e-02,-2.309354022145271301e-03,-5.189185962080955505e-02
2.490614168345928192e-02,-8.190034888684749603e-03,9.364546276628971100e-03,6.763239949941635132e-02,7.507940381765365601e-02,-6.798970699310302734e-02,-3.233727440237998962e-02,-2.443306520581245422e-02,-2.296277694404125214e-02,5.645724013447761536e-02
5.523848161101341248e-02,4.222848638892173767e-02,5.493045970797538757e-02,7.272557169198989868e-02,3.473331406712532043e-02,7.098769396543502808e-02,-1.364397816359996796e-02,6.885865330696105957e-02,7.738471031188964844e-02,-1.965827681124210358e-02
3.915140405297279358e-03,5.854960903525352478e-02,-3.393871709704399109e-02,-2.703376859426498413e-02,6.725753843784332275e-02,-5.941440910100936890e-02,7.050137221813201904e-02,3.319888934493064880e-02,-5.741650238633155823e-02,-5.636081099510192871e-03
4.508024454116821289e-02,-2.726970007643103600e-03,-5.061849579215049744e-02,-4.000370576977729797e-02,-6.763025186955928802e-03,7.033763080835342407e-02,7.222737371921539307e-02,3.426480293273925781e-02,5.189018324017524719e-02,4.602338746190071106e-02
7.103870809078216553e-02,5.445046350359916687e-02,3.570084646344184875e-02,-9.945189580321311951e-03,-2.192164398729801178e-02,5.608294159173965454e-02,-5.621331185102462769e-02,-6.013435870409011841e-02,7.366715371608734131e-02,5.436183512210845947e-02
-6.343857198953628540e-02,-3.225284453947097063e-04,4.307927191257476807e-02,8.566810935735702515e-02,-2.000375837087631226e-02,-1.503150071948766708e-02,-3.362698107957839966e-02,5.169642716646194458e-02,1.567311398684978485e-02,6.406755000352859497e-02
-8.295179158449172974e-02,3.229428455233573914e-02,4.381159693002700806e-02,-7.164701074361801147e-02,-4.642061889171600342e-03,8.276627212762832642e-02,1.694742590188980103e-02,4.452243819832801819e-02,-7.226974517107009888e-02,-6.548532098531723022e-02
3.175005689263343811e-02,-2.482153242453932762e-03,7.303073257207870483e-02,8.142163045704364777e-03,9.397789835929870605e-04,2.705693431198596954e-02,-5.854442343115806580e-02,-8.340061455965042114e-02,-6.294301897287368774e-02,4.070987552404403687e-02
5.393490567803382874e-02,-1.991834491491317749e-02,3.957413136959075928e-03,-5.499154701828956604e-02,-5.762092769145965576e-02,-3.701563179492950439e-02,-6.595299392938613892e-02,4.338818415999412537e-02,7.310434430837631226e-02,-2.522703073918819427e-02
5.233764275908470154e-02,-5.630620196461677551e-02,-4.113413766026496887e-02,4.488796368241310120e-02,-2.016112208366394043e-02,2.895053289830684662e-02,-4.548654833342880011e-04,-2.397865243256092072e-02,-4.771769419312477112e-02,6.767966598272323608e-02
-1.981820724904537201e-02,-5.059399083256721497e-02,-6.849930435419082642e-02,-1.163365226238965988e-02,3.899522498250007629e-02,7.624060660600662231e-02,3.314666077494621277e-02,-2.991330064833164215e-02,6.954268366098403931e-02,7.176741212606430054e-02
-3.577743470668792725e-02,-3.252714872360229492e-02,-4.398069903254508972e-02,2.620406448841094971e-02,5.639120936393737793e-03,-1.332530844956636429e-02,8.629678934812545776e-02,-2.766672521829605103e-02,-3.042392432689666748e-02,-9.609553031623363495e-03
8.611528202891349792e-03,-6.968547124415636063e-03,-2.312568249180912971e-03,-4.056603088974952698e-02,8.117600530385971069e-02,3.311998024582862854e-02,8.089054375886917114e-02,2.349052578210830688e-02,7.605507224798202515e-02,-6.720022112131118774e-02
3.887099772691726685e-02,-7.657885551452636719e-02,3.328934684395790100e-02,-7.682950049638748169e-02,6.072910502552986145e-02,7.666525244712829590e-02,-8.633435517549514771e-02,-7.329749315977096558e-02,-2.759190090000629425e-02,8.321758359670639038e-02
4.854410141706466675e-02,-3.926025331020355225e-02,-6.085589155554771423e-02,1.625272631645202637e-02,7.172925770282745361e-02,-5.757922679185867310e-02,2.211342006921768188e-02,-5.784569680690765381e-02,-3.224106505513191223e-02,3.143626078963279724e-02
3.609457239508628845e-02,6.928830593824386597e-02,-4.394856095314025879e-02,-8.195313066244125366e-02,-8.334814012050628662e-02,7.312028855085372925e-02,6.124055758118629456e-02,1.694864593446254730e-02,-6.727152317762374878e-02,-5.258430261164903641e-03
2.449238300323486328e-02,-2.733793295919895172e-02,2.913709497079253197e-03,-6.816891580820083618e-02,-5.962871946394443512e-03,-8.587099611759185791e-03,6.225919350981712341e-02,7.579138129949569702e-02,-1.184496912173926830e-03,1.751438155770301819e-02
2.730985358357429504e-02,-6.674493849277496338e-02,7.663853466510772705e-02,-2.930984832346439362e-02,3.632310777902603149e-02,-5.545506719499826431e-03,-1.434528548270463943e-02,9.980862960219383240e-03,-2.412394620478153229e-02,-3.040249645709991455e-02
-3.142707049846649170e-02,9.581447578966617584e-03,-1.282094605267047882e-02,8.173652738332748413e-02,-2.049065940082073212e-02,-1.421329472213983536e-02,-1.655916869640350342e-02,7.588228583335876465e-02,5.710647907108068466e-03,-2.825709991157054901e-02
1.419475581496953964e-02,7.101072464138269424e-03,-1.351831853389739990e-02,7.227003574371337891e-02,-1.600098051130771637e-02,-2.775064436718821526e-03,-1.113538909703493118e-02,3.954651206731796265e-02,-6.012562289834022522e-02,-5.576348863542079926e-03
7.581351697444915771e-02,-8.179084956645965576e-02,8.490040898323059082e-02,-8.549015969038009644e-02,-6.984072178602218628e-02,-2.955876290798187256e-02,2.109757438302040100e-02,-7.703389227390289307e-02,5.858789198100566864e-03,-4.020714759826660156e-02
3.120230324566364288e-02,-3.372062370181083679e-02,-7.114441692829132080e-02,-8.456897735595703125e-02,2.318586967885494232e-02,7.228123489767313004e-03,2.398005500435829163e-02,-7.750312983989715576e-02,-8.414273709058761597e-02,-6.088506802916526794e-02
-7.074453681707382202e-02,7.424405217170715332e-02,-1.463778596371412277e-02,1.258466765284538269e-02,-6.845493614673614502e-02,3.884545713663101196e-02,2.194095961749553680e-02,-3.088997863233089447e-02,3.666689991950988770e-02,-6.598215550184249878e-02
-1.565012149512767792e-02,3.700786456465721130e-02,-6.629363447427749634e-02,-2.152081020176410675e-02,-4.921599477529525757e-02,3.474486619234085083e-02,9.936807677149772644e-03,-3.690651804208755493e-02,-5.407566204667091370e-02,-2.783339656889438629e-02
2.713352069258689880e-02,-3.327210992574691772e-02,-4.934424161911010742e-02,-6.845100317150354385e-03,5.949705839157104492e-02,7.634670287370681763e-02,1.015194281935691833e-01,-3.868066705763339996e-03,5.623363703489303589e-02,-2.322622388601303101e-02
-6.214883551001548767e-02,-3.171830996870994568e-02,-5.721165984869003296e-02,2.781232446432113647e-02,3.552900627255439758e-02,2.529946155846118927e-02,9.166423231363296509e-02,-7.835198938846588135e-02,-5.779877677559852600e-02,1.128705684095621109e-02
-1.882165670394897461e-02,-5.885296687483787537e-02,-4.778498411178588867e-02,8.225786499679088593e-03,4.153485968708992004e-02,6.523947417736053467e-02,4.782339185476303101e-02,-2.604083344340324402e-02,1.718045398592948914e-02,-5.705949291586875916e-02
6.448279321193695068e-02,-2.154233306646347046e-02,-2.756065689027309418e-02,7.804504781961441040e-02,-3.729894757270812988e-02,-5.099710449576377869e-02,1.103127673268318176e-01,2.057198435068130493e-02,-9.098517894744873047e-02,7.773213833570480347e-02
3.065201640129089355e-02,2.890661358833312988e-02,-3.329341113567352295e-02,-7.629358023405075073e-02,-9.007295221090316772e-02,-4.981962963938713074e-02,-2.522020414471626282e-02,5.047029629349708557e-02,1.340528577566146851e-02,-7.538046687841415405e-02
-3.608801588416099548e-02,-2.918317727744579315e-02,-8.345577120780944824e-02,2.006382495164871216e-02,-1.784762181341648102e-02,3.173032402992248535e-02,8.196390420198440552e-02,7.447409629821777344e-02,-7.297001779079437256e-02,-4.728280752897262573e-02
-5.135857313871383667e-02,7.031709700822830200e-02,-3.631084226071834564e-03,1.601615920662879944e-03,-5.194097384810447693e-02,7.089717686176300049e-02,6.892829388380050659e-02,1.056438963860273361e-02,-8.666466176509857178e-02,-6.014018878340721130e-02
-3.808242455124855042e-02,4.530536010861396790e-02,4.646489024162292480e-02,3.684859722852706909e-02,7.184021174907684326e-02,-3.113506361842155457e-03,1.043864339590072632e-01,-7.627243548631668091e-02,-4.503776784986257553e-03,4.626236483454704285e-02
-1.424274221062660217e-02,-2.475988864898681641e-02,2.159144170582294464e-02,1.891692541539669037e-02,-1.362049253657460213e-03,5.478340387344360352e-02,5.969596281647682190e-02,4.933409020304679871e-02,-3.376310318708419800e-02,-5.971053242683410645e-02
-6.013772264122962952e-02,2.245537936687469482e-02,7.308381795883178711e-02,-7.890498638153076172e-02,-5.223986133933067322e-02,2.347682602703571320e-02,-2.866694517433643341e-02,-2.530558779835700989e-02,-8.063546568155288696e-02,-3.691045194864273071e-02
3.900768235325813293e-02,7.725829631090164185e-02,7.061451673507690430e-02,-7.815865427255630493e-02,-1.157617289572954178e-02,-1.103233918547630310e-02,-3.177575394511222839e-02,2.527489513158798218e-02,3.556700423359870911e-02,5.427257344126701355e-02
-1.197334006428718567e-02,7.797580212354660034e-02,-1.007284130901098251e-02,-1.608332805335521698e-02,-1.608662307262420654e-02,-3.592487052083015442e-02,-3.874531015753746033e-02,2.019820362329483032e-02,-1.131850993260741234e-03,-1.347201969474554062e-02
-5.512758716940879822e-02,-4.562035575509071350e-02,-8.349781483411788940e-02,7.275804132223129272e-02,5.645707622170448303e-02,-5.636826530098915100e-02,2.170570008456707001e-02,4.682906344532966614e-02,-3.345355764031410217e-02,-5.082972347736358643e-03
7.706151157617568970e-02,5.655418615788221359e-03,3.172751516103744507e-02,7.670204620808362961e-03,9.741839952766895294e-03,2.038837783038616180e-02,1.245941966772079468e-02,-1.211810857057571411e-02,-4.088454321026802063e-02,2.520125173032283783e-02
2.619296498596668243e-02,-2.759717218577861786e-02,5.829266831278800964e-02,-3.369897976517677307e-02,-1.551423221826553345e-02,-1.545408833771944046e-02,-6.613858044147491455e-02,6.040185689926147461e-03,5.115829035639762878e-02,-7.727667689323425293e-02
-6.098084524273872375e-02,-7.048382610082626343e-02,6.313556339591741562e-03,-1.963697373867034912e-02,3.190576657652854919e-02,5.442708265036344528e-03,-7.064249832183122635e-03,-5.886396858841180801e-03,6.199768278747797012e-03,7.428207993507385254e-02
4.482932016253471375e-02,-2.935080043971538544e-02,5.761861801147460938e-02,6.378282606601715088e-02,1.191544719040393829e-02,1.509131025522947311e-02,-7.393640279769897461e-02,-5.963040888309478760e-02,2.491228654980659485e-02,-8.542868494987487793e-02
-8.484503254294395447e-03,7.363978028297424316e-02,8.290918916463851929e-02,-6.260184198617935181e-02,2.992405928671360016e-02,-8.671982586383819580e-02,1.028794050216674805e-02,-2.492232597433030605e-04,-7.415730506181716919e-02,-7.384325563907623291e-02
4.932870343327522278e-02,3.051625937223434448e-02,2.687626890838146210e-02,6.647393573075532913e-03,3.162591159343719482e-02,-5.131972581148147583e-02,-4.104092344641685486e-02,5.373218655586242676e-02,2.064869925379753113e-02,-4.946533218026161194e-02
-7.897481322288513184e-02,-2.921842038631439209e-02,-6.088265031576156616e-02,-6.508982926607131958e-02,-6.198954954743385315e-02,-8.537206053733825684e-02,-7.521621137857437134e-02,5.649558454751968384e-02,5.150885507464408875e-02,-4.021232202649116516e-02
-2.864129468798637390e-02,2.005319111049175262e-02,-6.601250916719436646e-02,4.312354698777198792e-02,-7.558405399322509766e-02,4.154680296778678894e-02,3.389315307140350342e-02,5.096086487174034119e-02,-3.738806396722793579e-02,-3.962617740035057068e-02
-8.678653091192245483e-02,8.288180828094482422e-02,-3.234165534377098083e-02,-4.664498940110206604e-02,-3.296883776783943176e-02,-4.807538539171218872e-02,-6.059626489877700806e-02,-1.912008598446846008e-02,1.876029185950756073e-02,2.439034357666969299e-02
4.731798544526100159e-02,-6.996232271194458008e-02,-5.424801260232925415e-02,-3.093189559876918793e-02,-6.507623940706253052e-02,-5.731937289237976074e-02,-2.994587831199169159e-02,5.460328236222267151e-02,6.236565858125686646e-02,-5.388820543885231018e-02
4.250874742865562439e-02,-2.981875464320182800e-02,2.059700340032577515e-02,-6.470710784196853638e-02,1.619810424745082855e-02,-7.376383990049362183e-02,9.789662063121795654e-02,-6.531963497400283813e-02,2.943479269742965698e-02,5.531180649995803833e-02
1.438670977950096130e-02,2.174730598926544189e-02,-3.216681256890296936e-02,4.539397731423377991e-02,-3.004275076091289520e-02,-8.091209828853607178e-02,9.877920150756835938e-03,6.118700653314590454e-02,-6.083171442151069641e-02,-3.454858064651489258e-02
-5.191428959369659424e-02,-3.652960434556007385e-02,5.635353922843933105e-02,3.927243407815694809e-03,-1.025177761912345886e-01,2.572479657828807831e-02,9.557167440652847290e-02,6.007349863648414612e-02,-5.090509657748043537e-04,-9.832554310560226440e-02
4.527107812464237213e-03,1.151280570775270462e-02,9.154311567544937134e-02,-4.557797312736511230e-02,1.383931655436754227e-02,4.235744010657072067e-03,5.042278766632080078e-02,-8.199126273393630981e-02,-2.097089029848575592e-02,-1.044881413690745831e-03
-6.107397004961967468e-02,3.375569358468055725e-02,1.059478968381881714e-01,9.631167352199554443e-02,-1.194625273346900940e-01,1.645552925765514374e-02,6.686959415674209595e-02,2.268501929938793182e-02,-4.898257926106452942e-02,-3.583540767431259155e-02
-3.883178532123565674e-02,-6.438933312892913818e-02,1.274797767400741577e-01,-1.954365894198417664e-02,2.362802624702453613e-03,3.984072059392929077e-02,1.071893721818923950e-01,-6.766191124916076660e-02,-1.143707260489463806e-01,-8.351010829210281372e-02
2.255544252693653107e-02,6.925657391548156738e-02,5.914294347167015076e-02,-3.856861731037497520e-03,1.426894776523113251e-02,2.369258366525173187e-02,1.227736771106719971e-01,-2.962595038115978241e-02,2.541292645037174225e-02,-9.051427990198135376e-02
-2.649210579693317413e-02,-3.686201944947242737e-02,-2.610237337648868561e-02,5.305838212370872498e-02,3.003234975039958954e-02,2.952727116644382477e-02,1.268367767333984375e-01,-7.692294567823410034e-02,-4.101139679551124573e-02,-5.531929805874824524e-02
-4.588709212839603424e-03,3.250565752387046814e-02,5.819386336952447891e-03,-6.240249052643775940e-02,2.293877303600311279e-02,-9.781584888696670532e-02,1.670838445425033569e-01,2.632275223731994629e-02,-8.749619126319885254e-02,9.546238929033279419e-03
3.083641827106475830e-02,-9.634025394916534424e-02,7.208981364965438843e-02,-3.778333589434623718e-02,-9.755989909172058105e-02,-7.691819220781326294e-02,1.713670194149017334e-01,-9.039007872343063354e-02,1.881292089819908142e-02,-1.246436405926942825e-02
3.387341275811195374e-02,-8.121801540255546570e-03,-5.345145612955093384e-02,-6.302133947610855103e-02,-1.865830272436141968e-02,1.670696772634983063e-02,8.744047582149505615e-02,-6.827293336391448975e-02,-2.279894053936004639e-02,6.757503002882003784e-02
2.428874187171459198e-02,-3.375712409615516663e-02,2.223711833357810974e-02,-3.321945667266845703e-02,4.106107726693153381e-02,7.413651794195175171e-02,4.746986180543899536e-02,5.044051446020603180e-03,-9.883793070912361145e-03,6.410504132509231567e-02
2.234889252576977015e-04,-6.099863350391387939e-02,2.093173749744892120e-02,-2.397818956524133682e-03,2.100417017936706543e-02,2.033060789108276367e-02,1.508382856845855713e-01,3.426180779933929443e-02,1.159806549549102783e-02,-7.189153134822845459e-02
6.005032733082771301e-02,1.111100893467664719e-02,4.062097519636154175e-03,-7.587739825248718262e-02,4.252729937434196472e-02,-1.227983040735125542e-03,-4.444086551666259766e-02,-8.219669014215469360e-02,2.041600085794925690e-02,1.189526636153459549e-02
-7.449369132518768311e-02,2.457198686897754669e-02,7.867695391178131104e-02,7.474452257156372070e-02,4.871026799082756042e-02,-1.925860531628131866e-02,-4.246111586689949036e-02,6.043422967195510864e-02,-1.293254271149635315e-02,-4.271111264824867249e-02
8.363034576177597046e-02,5.754280835390090942e-02,4.862705711275339127e-03,-5.770947039127349854e-02,-4.887410253286361694e-02,-3.352701291441917419e-02,5.203833803534507751e-02,-2.135583572089672089e-02,-3.828817605972290039e-02,1.100263185799121857e-02
-6.118703261017799377e-02,-3.915211185812950134e-02,3.689206391572952271e-02,-7.040113955736160278e-02,-1.637712679803371429e-02,-4.340695589780807495e-02,4.430344328284263611e-02,-7.725711911916732788e-02,-1.067397929728031158e-02,5.348477140069007874e-02
-9.950678795576095581e-03,-5.758985504508018494e-02,-5.441668629646301270e-02,-5.633800104260444641e-02,7.927609235048294067e-02,-6.641742587089538574e-02,7.980576902627944946e-02,5.220503360033035278e-02,6.134149432182312012e-02,-2.151858806610107422e-02
6.272985786199569702e-02,-2.168931253254413605e-02,6.337895244359970093e-02,5.349129810929298401e-02,4.096985235810279846e-02,-4.188580065965652466e-02,-3.725518286228179932e-02,6.348647922277450562e-02,-2.136523649096488953e-02,7.786557823419570923e-02
-3.739229962229728699e-02,4.252857062965631485e-03,6.677969545125961304e-02,-5.245738103985786438e-02,2.512470586225390434e-03,-4.351473972201347351e-02,-4.484832659363746643e-02,-6.127342954277992249e-02,-3.349549695849418640e-02,-5.016557499766349792e-02
-5.068491678684949875e-03,-4.471488669514656067e-02,3.112724050879478455e-02,7.213088124990463257e-02,-2.452892251312732697e-02,1.836500130593776703e-02,-4.219442978501319885e-02,4.829451069235801697e-02,-4.804835096001625061e-02,-4.312731698155403137e-02
-7.555439323186874390e-02,2.478956989943981171e-02,-6.731878966093063354e-03,1.449453458189964294e-02,5.186357349157333374e-02,5.694329738616943359e-02,-5.191007629036903381e-02,-3.052093274891376495e-02,-7.067024707794189453e-03,4.295777156949043274e-02
-2.412836812436580658e-02,-5.894863978028297424e-02,5.873069539666175842e-02,8.537936955690383911e-02,1.924641616642475128e-02,-8.702183514833450317e-02,1.220468911924399436e-04,6.736133992671966553e-02,1.460577454417943954e-02,-4.641912132501602173e-02
7.968254387378692627e-02,-1.486113388091325760e-02,-2.304919250309467316e-02,2.104977890849113464e-02,6.426345556974411011e-03,1.784552261233329773e-02,2.497486956417560577e-02,2.800695225596427917e-02,6.061678286641836166e-03,-5.083645880222320557e-02
-8.065342903137207031e-02,6.192485243082046509e-02,9.107386320829391479e-02,2.442990662530064583e-04,-4.994236677885055542e-02,-1.611279696226119995e-02,1.722909882664680481e-02,5.130411684513092041e-02,9.269671514630317688e-03,-7.555268704891204834e-02
-1.476608682423830032e-03,3.678968176245689392e-02,-4.377343133091926575e-02,-2.230804413557052612e-02,5.562515929341316223e-02,2.829753793776035309e-02,5.533179268240928650e-02,-3.913075476884841919e-02,7.312750071287155151e-02,-5.521397292613983154e-02
-4.636162891983985901e-02,-1.031337399035692215e-02,5.826818943023681641e-02,9.547542780637741089e-02,-7.803356647491455078e-02,1.643414795398712158e-02,-6.683804094791412354e-02,4.803979396820068359e-02,-2.796616218984127045e-02,-4.544729739427566528e-02
-4.906980786472558975e-03,5.370729416608810425e-02,5.516057834029197693e-02,4.554900527000427246e-02,-2.953106723725795746e-02,-2.643578313291072845e-02,3.781830146908760071e-02,-5.971644818782806396e-02,-6.949251145124435425e-02,-7.945846021175384521e-02
-6.988798081874847412e-02,7.422885298728942871e-02,1.409463435411453247e-01,-4.387780558317899704e-03,-9.888371452689170837e-03,-8.722580038011074066e-03,9.515456855297088623e-02,-1.085033826529979706e-02,3.892531245946884155e-02,-1.665759459137916565e-02
3.840085864067077637e-02,-6.063999980688095093e-02,1.473630517721176147e-01,1.368047297000885010e-01,1.422376371920108795e-03,2.851901575922966003e-02,1.818849705159664154e-02,7.667334284633398056e-04,-8.022422343492507935e-02,-7.012961059808731079e-02
-4.554123431444168091e-02,-6.454117596149444580e-02,1.520567685365676880e-01,2.113143168389797211e-02,-1.238882690668106079e-01,-3.947850316762924194e-02,-6.546856462955474854e-02,-1.056783795356750488e-01,-2.250419370830059052e-02,-1.856690272688865662e-02
-1.003928855061531067e-01,-4.559282585978507996e-02,9.503329545259475708e-02,6.616935133934020996e-02,-1.009867936372756958e-01,-8.751000463962554932e-02,-4.534801840782165527e-02,-9.180495887994766235e-02,-1.367119979113340378e-02,-1.230533942580223083e-01
-7.665764540433883667e-02,-7.183118164539337158e-02,1.432583481073379517e-01,6.904748082160949707e-02,-1.478422880172729492e-01,-1.164063513278961182e-01,8.984684199094772339e-02,-1.320409309118986130e-02,-9.933449327945709229e-02,-6.400335580110549927e-02
3.425403311848640442e-02,9.149666130542755127e-02,1.495250612497329712e-01,7.172917015850543976e-03,-4.093220829963684082e-02,-5.067182704806327820e-02,8.529790490865707397e-02,-3.352813422679901123e-02,-1.770733110606670380e-02,-5.077568814158439636e-02
3.195175155997276306e-02,-1.872492954134941101e-02,1.027239784598350525e-01,5.666301026940345764e-02,-8.246593177318572998e-02,1.212963089346885681e-02,1.053569018840789795e-01,1.139677874743938446e-02,-5.701214820146560669e-02,-1.195144131779670715e-01
-3.535527363419532776e-02,3.367029502987861633e-02,7.935682684183120728e-02,-4.384276643395423889e-02,-7.685372978448867798e-02,-9.862076491117477417e-02,7.693582773208618164e-02,6.718222796916961670e-02,4.816995933651924133e-02,-1.728003025054931641e-01
-3.974246283178217709e-05,6.620319187641143799e-02,4.583071172237396240e-02,6.658297963440418243e-03,-4.703265428543090820e-02,6.329376995563507080e-02,2.087939828634262085e-01,1.861331425607204437e-02,-9.124904125928878784e-02,-8.955696970224380493e-02
3.707863390445709229e-02,-3.474118420854210854e-03,8.051707595586776733e-02,-6.374855339527130127e-02,-4.173203371465206146e-03,-2.853939868509769440e-02,1.170996055006980896e-01,-4.148839786648750305e-02,-7.263518124818801880e-02,-7.771898806095123291e-02
-6.596416234970092773e-03,-3.808995336294174194e-02,2.189904218539595604e-03,-5.203879624605178833e-02,-2.672383189201354980e-02,-8.112696558237075806e-02,6.828932464122772217e-02,6.316332519054412842e-02,-2.950948104262351990e-02,-1.280958205461502075e-01
-7.505315542221069336e-02,-5.221136659383773804e-02,1.766823977231979370e-02,4.341879114508628845e-02,-1.095900312066078186e-02,-2.000909671187400818e-02,1.564000099897384644e-01,-1.186241954565048218e-02,-3.318127477541565895e-03,-6.826207041740417480e-02
-4.632892459630966187e-02,4.587688669562339783e-02,8.634142577648162842e-03,-3.628523647785186768e-02,8.812544494867324829e-02,-4.749884828925132751e-02,4.348178207874298096e-02,1.204791199415922165e-02,-4.626266192644834518e-03,-7.807737588882446289e-02
-5.380924046039581299e-02,-2.664722735062241554e-03,-6.912866607308387756e-03,1.324619352817535400e-02,-3.396034985780715942e-02,4.267516080290079117e-03,-6.711253896355628967e-03,6.031463667750358582e-02,1.399082597345113754e-02,6.086720526218414307e-02
-3.535658493638038635e-02,7.302221655845642090e-02,-4.225407540798187256e-02,-9.084089100360870361e-02,9.577729552984237671e-02,-2.592406049370765686e-02,-5.481290817260742188e-02,-4.363239277154207230e-03,-3.029359877109527588e-02,-1.338869333267211914e-02
-5.753997713327407837e-02,1.722872257232666016e-02,3.000858053565025330e-02,1.367450226098299026e-02,5.699878931045532227e-02,-3.550119325518608093e-02,6.673557311296463013e-02,6.022600084543228149e-02,-4.420240223407745361e-02,-4.648683592677116394e-02
-2.311223931610584259e-02,2.291661128401756287e-02,-5.756239220499992371e-02,7.056941092014312744e-02,-3.530697524547576904e-02,-3.445686027407646179e-02,-9.539052844047546387e-03,-6.939603388309478760e-02,2.088909409940242767e-02,8.320698887109756470e-02
-2.160851843655109406e-03,-3.788608312606811523e-02,-8.481014519929885864e-02,-5.923986434936523438e-02,3.567043691873550415e-02,6.823547929525375366e-02,-9.257989935576915741e-03,3.140761703252792358e-02,1.371167972683906555e-02,1.488542370498180389e-02
-8.046057075262069702e-02,-4.035267978906631470e-02,1.644452847540378571e-02,-6.934400647878646851e-02,-8.492892980575561523e-02,8.253751695156097412e-02,-8.666252344846725464e-02,4.311443492770195007e-02,-1.876581832766532898e-02,9.728176519274711609e-03
4.895105585455894470e-02,1.506060454994440079e-02,-3.014415688812732697e-02,-4.519790038466453552e-02,4.940196499228477478e-02,4.558436200022697449e-02,-1.784954220056533813e-02,-1.639204286038875580e-02,4.558496549725532532e-02,-1.240575779229402542e-02
-4.100551456212997437e-02,-6.450138986110687256e-02,-2.672374434769153595e-02,-2.988809486851096153e-03,3.013767115771770477e-02,8.542151004076004028e-02,3.016781248152256012e-02,-2.512868307530879974e-02,-6.903328746557235718e-02,-6.719462573528289795e-02
-6.454547494649887085e-02,-1.383579801768064499e-02,-1.398477517068386078e-02,-7.462746649980545044e-02,-7.908470928668975830e-02,-3.925988450646400452e-02,-4.420878738164901733e-02,3.711251541972160339e-02,-9.621729142963886261e-03,-1.990172825753688812e-02
-2.996562607586383820e-02,-8.392997831106185913e-02,-5.689038080163300037e-04,1.580232940614223480e-02,9.831709787249565125e-03,2.682869508862495422e-02,7.649275660514831543e-02,-8.618737757205963135e-02,2.996365167200565338e-02,1.168356742709875107e-02
1.615864038467407227e-02,-8.051079511642456055e-02,-1.666535250842571259e-02,2.952390164136886597e-02,-7.767518609762191772e-02,-6.640868633985519409e-02,-6.790497899055480957e-02,4.759324342012405396e-02,5.421813577413558960e-02,-7.967498153448104858e-02
3.487295284867286682e-02,-6.543549150228500366e-02,5.118604749441146851e-02,-1.468273904174566269e-02,2.513852156698703766e-02,-5.155786499381065369e-02,6.421364843845367432e-02,-5.654820427298545837e-02,-8.006896078586578369e-02,-3.898432105779647827e-02
4.745789617300033569e-02,4.931369051337242126e-02,-3.940546885132789612e-02,7.862290740013122559e-02,7.928855717182159424e-02,4.494664072990417480e-02,1.993565820157527924e-02,-5.188080668449401855e-02,-2.283744327723979950e-02,3.594892844557762146e-02
-2.510881982743740082e-02,3.620341047644615173e-02,5.095075443387031555e-02,4.837267473340034485e-02,-9.989852085709571838e-03,-3.036806359887123108e-02,6.567922979593276978e-02,-9.514627605676651001e-02,4.867369681596755981e-02,-8.035229146480560303e-02
-1.059176549315452576e-01,-6.311925500631332397e-02,2.185269445180892944e-02,9.520447999238967896e-02,-6.477344036102294922e-02,-6.657531112432479858e-02,-1.964129321277141571e-02,-5.878785997629165649e-02,-9.090837091207504272e-02,5.862424150109291077e-03
-4.963190853595733643e-02,-6.755496561527252197e-02,1.279983818531036377e-01,3.518162667751312256e-02,6.164481863379478455e-02,-3.774331137537956238e-02,6.094062328338623047e-02,-1.100456044077873230e-01,-9.426621347665786743e-02,-8.000466227531433105e-02
4.897955432534217834e-02,1.665880158543586731e-02,2.231534719467163086e-01,1.538355648517608643e-01,4.081815481185913086e-03,2.766457758843898773e-02,-8.163441717624664307e-02,-1.167141571640968323e-01,-2.710173465311527252e-02,-1.444267183542251587e-01
5.428520217537879944e-02,-8.111802488565444946e-02,2.335774749517440796e-01,8.552079647779464722e-02,-3.400041535496711731e-02,-1.627366617321968079e-02,3.939962387084960938e-02,-1.421091854572296143e-01,-1.543815154582262039e-02,-2.148748934268951416e-02
-4.101550206542015076e-02,7.098477799445390701e-03,1.988878846168518066e-01,1.215516105294227600e-01,-1.124350875616073608e-01,-2.831894718110561371e-02,-1.472669094800949097e-02,-7.700396329164505005e-02,-2.297383546829223633e-02,-7.881314307451248169e-02
1.172607913613319397e-01,8.486931212246417999e-03,1.391636729240417480e-01,4.995016381144523621e-02,-5.333805456757545471e-02,-4.433301836252212524e-02,-5.080931261181831360e-02,-2.250306494534015656e-02,9.469282627105712891e-02,-1.629653275012969971e-01
6.847529113292694092e-02,9.542329609394073486e-02,1.965359449386596680e-01,4.128113016486167908e-02,-1.602134108543395996e-02,-3.640100732445716858e-02,-6.458434741944074631e-03,-1.348103731870651245e-01,1.037600338459014893e-01,-2.018595933914184570e-01
1.074004024267196655e-01,-8.466801792383193970e-02,1.915796995162963867e-01,6.522416323423385620e-02,-1.267067492008209229e-01,-1.478777825832366943e-02,-7.453338801860809326e-02,-1.451319158077239990e-01,3.341326490044593811e-02,-1.834554821252822876e-01
2.755670435726642609e-02,-8.956176787614822388e-02,1.686922758817672729e-01,1.881051994860172272e-02,1.605740375816822052e-02,2.268872782588005066e-02,-4.990608990192413330e-02,-1.405859142541885376e-01,6.067896261811256409e-02,-2.111286073923110962e-01
1.416983306407928467e-01,6.267931312322616577e-02,1.374192833900451660e-01,-1.645914837718009949e-02,-1.096487939357757568e-01,-5.303078517317771912e-02,6.907106190919876099e-02,-7.971184700727462769e-02,1.231137961149215698e-01,-1.856209784746170044e-01
1.507948618382215500e-02,3.543880581855773926e-02,4.387956112623214722e-02,-6.344421952962875366e-02,5.727057810872793198e-03,9.204082190990447998e-02,6.045021489262580872e-02,-4.290226846933364868e-02,-4.370358958840370178e-02,-2.338697910308837891e-01
5.650731176137924194e-02,1.014592349529266357e-01,-7.704210281372070312e-02,-9.466976672410964966e-02,6.746830791234970093e-02,4.705912992358207703e-02,8.237307518720626831e-02,-3.302672505378723145e-02,-8.986937254667282104e-02,-8.655939251184463501e-02
1.234961673617362976e-02,3.992589935660362244e-02,-9.136942028999328613e-02,-7.920281589031219482e-02,2.489904873073101044e-04,1.145868301391601562e-01,1.032476350665092468e-01,1.151502132415771484e-01,1.587199606001377106e-02,-1.281774044036865234e-01
-7.549189031124114990e-02,7.731577754020690918e-02,-9.996008127927780151e-02,-5.743963643908500671e-02,1.387830078601837158e-01,7.095245271921157837e-02,9.785728901624679565e-02,1.015613153576850891e-01,-5.750484764575958252e-03,-1.756066456437110901e-02
-3.707616776227951050e-02,2.446691319346427917e-02,-6.484860088676214218e-03,-9.748533368110656738e-02,-8.957335725426673889e-03,5.899756774306297302e-02,-7.547033578157424927e-02,-6.638655811548233032e-02,-4.135654494166374207e-02,-1.326245516538619995e-01
-5.503844469785690308e-02,5.000790208578109741e-02,-9.293197095394134521e-02,-1.229021325707435608e-02,7.230944931507110596e-02,7.006700336933135986e-02,6.026451289653778076e-02,6.849589943885803223e-02,1.982362940907478333e-02,6.293100304901599884e-03
-4.828730225563049316e-02,-1.277056895196437836e-02,4.435870051383972168e-02,-1.581922546029090881e-02,5.137701332569122314e-02,1.817490439862012863e-03,-4.713691025972366333e-02,6.787239760160446167e-02,-3.589414060115814209e-02,6.434432417154312134e-02
-7.923816889524459839e-02,1.401952002197504044e-02,-8.391243219375610352e-02,-6.284517049789428711e-02,6.092906370759010315e-02,5.656646192073822021e-02,-5.913913622498512268e-02,6.378345936536788940e-02,-2.188064530491828918e-02,1.095122471451759338e-02
-7.677913643419742584e-03,1.251777168363332748e-02,-8.513558655977249146e-02,4.369911178946495056e-02,-4.324738681316375732e-02,4.308237507939338684e-02,3.698699176311492920e-02,4.469736013561487198e-03,2.969926595687866211e-02,4.038850963115692139e-02
-8.032921701669692993e-03,4.962863028049468994e-02,-6.552173942327499390e-02,3.989907354116439819e-02,5.251456797122955322e-02,-6.596574932336807251e-02,3.896809369325637817e-02,-7.385233789682388306e-02,7.123992592096328735e-02,4.636216443032026291e-03
-3.302745893597602844e-02,5.305567290633916855e-03,-7.628464698791503906e-02,3.208323940634727478e-02,1.980065181851387024e-02,5.868434533476829529e-02,6.737611442804336548e-02,8.139248192310333252e-02,2.370297908782958984e-03,3.138642385601997375e-02
4.848844558000564575e-02,-4.956991598010063171e-02,-2.974396385252475739e-02,-2.551878057420253754e-02,-7.664418220520019531e-02,-1.579124853014945984e-02,5.403756722807884216e-02,-2.575904130935668945e-02,-7.733854651451110840e-02,-1.183754391968250275e-02
8.385891467332839966e-02,6.975639611482620239e-02,-1.409437227994203568e-02,-4.401513561606407166e-02,-5.555390566587448120e-02,-8.500104397535324097e-02,7.756763603538274765e-03,6.055244803428649902e-02,1.448136474937200546e-02,-3.960662335157394409e-02
-2.188343554735183716e-02,-8.563892543315887451e-02,-2.127494663000106812e-02,3.439768776297569275e-02,-2.682925947010517120e-02,-2.332802396267652512e-03,6.712185591459274292e-02,2.725778892636299133e-02,1.101221889257431030e-02,5.867650732398033142e-02
3.567729145288467407e-02,2.913431671913713217e-05,2.158124372363090515e-02,-9.090491570532321930e-03,-6.129304692149162292e-02,-8.411627262830734253e-02,5.338113009929656982e-02,4.503516480326652527e-02,1.406540907919406891e-02,2.029465697705745697e-02
-1.483881752938032150e-02,-2.555400133132934570e-02,-5.969189852476119995e-02,7.836412638425827026e-02,4.815899580717086792e-02,-5.951596051454544067e-02,-6.399344652891159058e-02,-6.082730740308761597e-02,-3.071320056915283203e-02,-1.110523752868175507e-02
-1.914988085627555847e-02,-2.240505255758762360e-02,7.214972376823425293e-02,1.597312986850738525e-01,1.350464066490530968e-03,-1.076943986117839813e-02,-4.931022413074970245e-03,-2.886145934462547302e-02,-2.090501971542835236e-02,-1.215520408004522324e-02
4.643283039331436157e-02,4.398383200168609619e-02,1.556916534900665283e-01,6.996923685073852539e-02,4.767203703522682190e-02,-1.808099215850234032e-03,3.578604385256767273e-02,-3.837187215685844421e-02,-8.939065039157867432e-03,-2.305507101118564606e-02
-2.993126027286052704e-02,5.049302801489830017e-02,9.641444683074951172e-02,1.228666529059410095e-01,5.050970357842743397e-04,6.186207756400108337e-04,-9.954856336116790771e-02,-9.121718257665634155e-02,8.997713215649127960e-03,-8.034339547157287598e-02
-8.854834735393524170e-02,-1.068359911441802979e-01,1.793935149908065796e-01,1.834248006343841553e-01,2.416027523577213287e-02,3.984686918556690216e-03,-2.301069675013422966e-03,-1.057277694344520569e-01,5.602052062749862671e-02,-9.046790003776550293e-02
-9.442030638456344604e-02,5.690496414899826050e-03,4.906101524829864502e-02,1.892298310995101929e-01,-1.016883105039596558e-01,-3.385556628927588463e-03,-3.388070268556475639e-03,1.448297686874866486e-02,-1.526424102485179901e-02,-7.480414956808090210e-02
3.206901624798774719e-02,-8.240976184606552124e-02,1.127397790551185608e-01,1.623101085424423218e-01,-1.231913492083549500e-01,-2.378719300031661987e-02,-5.129092186689376831e-02,-1.055023148655891418e-01,1.542495284229516983e-02,-1.259043365716934204e-01
7.628720998764038086e-02,-6.300331652164459229e-02,1.708969920873641968e-01,1.043159067630767822e-01,-9.762240201234817505e-02,6.365071982145309448e-02,-1.453115642070770264e-01,-1.587100327014923096e-01,6.566625088453292847e-02,-1.333401910960674286e-02
3.353376314043998718e-02,-9.154600091278553009e-03,1.707046777009963989e-01,1.682150959968566895e-01,-1.984414011240005493e-01,2.230872400104999542e-03,-6.194965541362762451e-02,-3.299102559685707092e-02,7.470106333494186401e-02,8.823676407337188721e-02
1.649871468544006348e-02,4.782107193022966385e-03,3.242460638284683228e-02,8.053468912839889526e-02,-2.019553929567337036e-01,2.245932258665561676e-02,-8.512572944164276123e-02,-8.570180833339691162e-02,5.935426428914070129e-02,5.736328661441802979e-02
3.172872960567474365e-02,1.567051559686660767e-02,2.980667911469936371e-02,1.736841350793838501e-01,-1.467460542917251587e-01,-5.987042933702468872e-02,-3.002653643488883972e-02,-1.531589031219482422e-01,7.733716070652008057e-02,9.700514376163482666e-02
1.755519807338714600e-01,1.577115734107792377e-03,1.002568602561950684e-01,5.352130904793739319e-02,-1.116751953959465027e-01,-4.110503569245338440e-02,-1.705012470483779907e-02,-1.544944643974304199e-01,1.556872129440307617e-01,3.829862922430038452e-02
1.628176718950271606e-01,5.179347470402717590e-02,4.308042302727699280e-02,-3.296516370028257370e-03,-1.894865371286869049e-02,8.651959151029586792e-02,-5.115635693073272705e-02,-1.990909725427627563e-01,1.453455835580825806e-01,1.004503592848777771e-01
1.554913371801376343e-01,-6.323982775211334229e-02,8.833630383014678955e-02,3.962523490190505981e-02,-7.771395891904830933e-02,-4.404178354889154434e-03,-8.312126249074935913e-02,-7.980708777904510498e-02,7.570121437311172485e-02,-6.544947624206542969e-02
-3.314608475193381310e-03,-6.021416559815406799e-02,-3.878158330917358398e-02,7.714992016553878784e-02,6.288574635982513428e-02,9.984225034713745117e-02,-1.269221454858779907e-01,-7.323314249515533447e-02,-2.789388643577694893e-03,-8.390239626169204712e-02
-1.973051577806472778e-02,5.247839912772178650e-02,3.927423153072595596e-03,2.581449411809444427e-02,-9.087182581424713135e-03,1.751260608434677124e-01,-1.233997121453285217e-01,1.182182878255844116e-02,-4.227744042873382568e-02,-7.919342815876007080e-02
-1.749280840158462524e-02,-2.762303128838539124e-02,1.031341031193733215e-02,-5.795405805110931396e-02,3.267158567905426025e-02,5.815824866294860840e-02,-4.382715746760368347e-02,3.807196626439690590e-03,-7.626865059137344360e-03,-1.766667366027832031e-01
3.190134465694427490e-02,-6.786980479955673218e-02,-5.404362455010414124e-02,-1.119438111782073975e-01,1.447859555482864380e-01,2.486602663993835449e-01,-5.550039932131767273e-02,-6.897269189357757568e-02,-6.333111319690942764e-03,-2.658727951347827911e-02
4.093885049223899841e-02,-1.436841674149036407e-03,-7.947487384080886841e-02,2.528774365782737732e-02,1.269843429327011108e-01,1.613430082798004150e-01,7.787210866808891296e-03,3.451404348015785217e-02,6.721107661724090576e-02,-1.988395676016807556e-02
-5.376322660595178604e-03,4.433011170476675034e-03,1.494435034692287445e-02,5.404125154018402100e-02,-4.920488968491554260e-02,1.082150861620903015e-01,-2.265675738453865051e-02,-6.833761930465698242e-02,-8.407920598983764648e-02,2.648738585412502289e-02
-6.624648720026016235e-02,5.437241494655609131e-02,-7.413624227046966553e-02,-1.353698130697011948e-02,7.729754596948623657e-02,2.019208669662475586e-02,-5.172540619969367981e-02,1.019239053130149841e-02,-7.893318682909011841e-02,6.118537858128547668e-02
-3.883861750364303589e-02,-7.603860646486282349e-02,-4.659800976514816284e-02,1.337034348398447037e-02,-3.237150982022285461e-02,-3.253238648176193237e-02,-3.665233403444290161e-02,-5.150439962744712830e-02,7.852417230606079102e-02,1.004958711564540863e-02
2.573237009346485138e-02,5.681469663977622986e-02,-3.762237727642059326e-02,-5.731042474508285522e-02,7.032196223735809326e-02,2.901761606335639954e-02,4.907418787479400635e-02,1.583689451217651367e-02,-6.397899240255355835e-03,-3.494962677359580994e-02
-4.397407546639442444e-02,7.704570144414901733e-02,-1.123651955276727676e-02,-4.866928607225418091e-02,3.115966729819774628e-02,3.013394586741924286e-02,-3.497496619820594788e-02,-8.539077639579772949e-02,-8.522153645753860474e-02,6.570053100585937500e-02
9.669111110270023346e-03,3.407989069819450378e-02,7.870057225227355957e-02,-1.974030397832393646e-02,-4.710400849580764771e-02,-5.536962673068046570e-02,-1.631970517337322235e-02,7.438638806343078613e-02,1.389647368341684341e-02,-7.208879292011260986e-02
3.926528245210647583e-02,-6.081235781311988831e-02,1.915181055665016174e-02,4.930593818426132202e-02,-6.671608239412307739e-02,-4.947940632700920105e-02,3.519688919186592102e-02,-6.408342625945806503e-03,5.993292108178138733e-02,-6.882062554359436035e-02
-4.288946837186813354e-02,-5.159049481153488159e-02,7.119891792535781860e-02,9.027824550867080688e-02,-2.279746159911155701e-02,3.041206672787666321e-02,5.833433195948600769e-02,-3.533966839313507080e-02,3.291468322277069092e-02,-4.139526933431625366e-02
4.829275235533714294e-02,5.498218163847923279e-02,-3.050792589783668518e-02,-8.822754956781864166e-03,-6.069900840520858765e-02,-2.203993126749992371e-02,4.865023866295814514e-02,4.079296812415122986e-02,-1.692299731075763702e-02,7.438506465405225754e-03
-1.470470149070024490e-02,5.942000821232795715e-02,5.377125740051269531e-02,1.072015538811683655e-01,5.482264980673789978e-02,-1.452070381492376328e-02,-3.180617094039916992e-02,-4.768661037087440491e-02,-3.641368821263313293e-02,3.017413057386875153e-02
-1.072934120893478394e-01,-8.786725997924804688e-02,1.373748332262039185e-01,3.756039589643478394e-02,6.580692529678344727e-02,-3.147114813327789307e-02,-4.167326539754867554e-02,-3.359826281666755676e-02,2.293590642511844635e-02,-1.089169383049011230e-01
-6.463656574487686157e-02,-8.357718586921691895e-02,1.850363612174987793e-02,9.943170100450515747e-02,5.822679027915000916e-02,-8.245833218097686768e-02,-5.277424678206443787e-02,-1.170367095619440079e-02,-4.994136095046997070e-02,-1.497222930192947388e-01
-3.381759673357009888e-02,-6.481045484542846680e-02,4.704463854432106018e-02,9.914942085742950439e-02,-9.688314050436019897e-03,-4.894337803125381470e-02,-1.062321383506059647e-02,1.161983236670494080e-01,-8.588744327425956726e-03,-1.325982660055160522e-01
-5.686501413583755493e-02,-7.391047477722167969e-02,8.699187636375427246e-02,1.027842089533805847e-01,-8.864105492830276489e-02,-1.827309653162956238e-02,-4.303981363773345947e-02,-6.126732006669044495e-02,-3.529471904039382935e-02,-1.829279065132141113e-01
-4.199465911369770765e-04,1.512789633125066757e-03,1.448889821767807007e-01,1.045991852879524231e-01,-2.119672112166881561e-02,1.649021208286285400e-01,-6.073493510484695435e-03,7.755696773529052734e-03,1.080228537321090698e-01,-1.284169871360063553e-02
5.968254432082176208e-02,-2.486290968954563141e-02,8.076587319374084473e-02,2.828493900597095490e-02,-2.463215030729770660e-02,9.807160496711730957e-02,-9.311961941421031952e-03,-2.402235521003603935e-03,3.992869332432746887e-02,5.021195113658905029e-02
5.779568478465080261e-02,-8.117808401584625244e-02,1.287642270326614380e-01,2.338084205985069275e-02,-6.280606240034103394e-02,5.822337046265602112e-02,-1.183106228709220886e-01,2.219109050929546356e-02,6.396366655826568604e-02,6.824813783168792725e-02
1.308456342667341232e-02,-4.818627983331680298e-02,5.196919292211532593e-02,1.390590667724609375e-01,-2.818663418292999268e-01,9.291803091764450073e-02,-7.373180240392684937e-02,-2.490883320569992065e-02,1.111437939107418060e-02,1.884783953428268433e-01
1.222200617194175720e-01,2.772941067814826965e-02,4.603174328804016113e-02,2.032214775681495667e-03,-2.874326407909393311e-01,-1.163633633404970169e-02,-5.867919698357582092e-02,-6.334735453128814697e-02,4.170196875929832458e-02,2.440805137157440186e-01
6.445569545030593872e-02,-4.285738337785005569e-03,2.674543112516403198e-02,1.326465308666229248e-01,-3.462474942207336426e-01,-1.139975637197494507e-01,-8.384849131107330322e-02,-1.331403553485870361e-01,-7.204900681972503662e-02,2.889548540115356445e-01
1.133807301521301270e-01,2.928650192916393280e-02,2.234987041447311640e-04,1.323580890893936157e-01,-3.362178206443786621e-01,-1.903600059449672699e-02,-9.268733114004135132e-02,2.827930264174938202e-02,-7.292471826076507568e-02,2.769733667373657227e-01
6.171849370002746582e-02,2.649017050862312317e-02,-4.086502641439437866e-02,9.570524096488952637e-03,-1.048999428749084473e-01,1.533589418977499008e-02,-1.015400961041450500e-01,-4.284017160534858704e-02,-7.660678774118423462e-02,1.569752991199493408e-01
1.960832476615905762e-01,6.121001765131950378e-02,-3.389556705951690674e-02,8.957492560148239136e-02,-5.840522050857543945e-02,2.996720001101493835e-02,-1.701625436544418335e-01,-1.335175521671772003e-02,3.524132817983627319e-02,6.882831454277038574e-02
8.974886685609817505e-02,6.229731813073158264e-02,-6.025417521595954895e-02,7.898494601249694824e-02,-2.786395838484168053e-03,9.001561254262924194e-02,-1.743511706590652466e-01,-2.115210145711898804e-02,-2.095666481181979179e-03,-5.313922837376594543e-02
6.868794560432434082e-02,5.291470512747764587e-02,6.385677307844161987e-02,5.352830514311790466e-02,-5.109556764364242554e-02,9.307868033647537231e-02,-6.757646054029464722e-02,7.680436968803405762e-02,4.744580760598182678e-02,-5.229813978075981140e-03
1.032242849469184875e-01,-6.938380748033523560e-02,-2.267524600028991699e-02,-8.441736572422087193e-04,6.452539563179016113e-02,1.436177045106887817e-01,-3.595086932182312012e-02,-9.311096370220184326e-02,2.576185204088687897e-02,-1.014969944953918457e-01
9.951201081275939941e-02,-1.843424886465072632e-02,-5.239849165081977844e-02,-1.103785261511802673e-01,1.129476502537727356e-01,1.355024874210357666e-01,-1.406060159206390381e-01,-5.426668003201484680e-02,3.485418111085891724e-02,-6.676614284515380859e-02
-2.696655131876468658e-02,-1.675796508789062500e-02,-7.573141902685165405e-02,-8.862705901265144348e-03,-3.775283694267272949e-02,1.653667688369750977e-01,-1.321570426225662231e-01,-1.339290887117385864e-01,9.483586996793746948e-02,-1.561045348644256592e-01
-5.736527964472770691e-02,-7.667129486799240112e-02,-1.029852703213691711e-01,-3.600212186574935913e-02,5.912577360868453979e-02,2.283060997724533081e-01,-7.285708189010620117e-02,-2.003759704530239105e-02,1.435523852705955505e-02,-7.770357280969619751e-02
-5.795374512672424316e-03,-7.668081670999526978e-02,-5.903203412890434265e-02,-3.357613459229469299e-02,3.655718639492988586e-02,7.065864652395248413e-02,2.949659898877143860e-02,3.081683814525604248e-02,1.599423214793205261e-02,-9.616603702306747437e-02
-3.964409232139587402e-02,5.079898238182067871e-02,3.253464773297309875e-02,-2.231953106820583344e-02,7.268926501274108887e-02,-4.541470855474472046e-02,-5.732303857803344727e-02,-7.245617359876632690e-02,-3.769566118717193604e-02,-4.131867736577987671e-02
-7.364911586046218872e-02,1.637423969805240631e-02,-6.790947914123535156e-02,4.179628938436508179e-02,2.794747427105903625e-02,-1.583591289818286896e-02,-6.157644465565681458e-02,5.689104273915290833e-02,5.006980150938034058e-02,3.126385807991027832e-02
8.132288604974746704e-02,-5.353647843003273010e-02,-7.116835564374923706e-02,7.411968708038330078e-02,-7.994052022695541382e-02,-2.848160825669765472e-02,-5.751479417085647583e-02,5.471757426857948303e-02,-7.275456190109252930e-02,-6.568192690610885620e-02
-6.372021138668060303e-02,4.199955612421035767e-02,-7.362136244773864746e-02,-7.024124264717102051e-02,2.154185902327299118e-03,-3.791644796729087830e-02,-4.651688784360885620e-02,-5.537978187203407288e-02,2.837780676782131195e-02,-9.349872358143329620e-03
-2.670572698116302490e-02,7.435227930545806885e-02,5.035883933305740356e-02,6.154768913984298706e-02,7.026073336601257324e-02,-8.150225132703781128e-02,7.425431162118911743e-02,-3.558244556188583374e-02,-1.093770004808902740e-02,3.527328372001647949e-02
2.341006137430667877e-02,9.967723861336708069e-03,-4.933578893542289734e-02,2.199712768197059631e-02,3.423442365601658821e-03,-5.653327330946922302e-02,-3.266149759292602539e-02,4.877646639943122864e-02,7.284111052285879850e-05,-6.703895330429077148e-02
-4.907435178756713867e-02,-6.519315391778945923e-02,-6.689799576997756958e-02,4.777381196618080139e-02,-2.756866067647933960e-02,-1.086039170622825623e-01,5.363554134964942932e-02,-2.410122752189636230e-02,-6.151099503040313721e-02,-2.324999123811721802e-02
2.225980348885059357e-02,2.259091846644878387e-02,1.121420338749885559e-01,1.973257586359977722e-02,6.949817389249801636e-02,-1.090679317712783813e-01,-1.507137808948755264e-02,4.228090494871139526e-02,3.431155160069465637e-02,-3.801576048135757446e-02
-7.535069435834884644e-02,1.288237283006310463e-03,6.418506801128387451e-02,5.927092209458351135e-02,6.181921809911727905e-02,-2.758382633328437805e-02,-1.351662538945674896e-02,1.148249208927154541e-01,-7.788919657468795776e-02,-1.484602689743041992e-01
-7.306702435016632080e-02,-6.226363033056259155e-02,2.549455128610134125e-02,2.113640867173671722e-02,3.181074187159538269e-02,5.889257788658142090e-02,1.638425327837467194e-02,1.332813203334808350e-01,1.238712342455983162e-03,-5.897704139351844788e-02
1.033726520836353302e-02,-3.485113754868507385e-02,1.164173427969217300e-02,1.647802069783210754e-02,1.967011950910091400e-02,2.665830403566360474e-02,-9.777763485908508301e-02,1.569377630949020386e-01,9.930175542831420898e-02,-1.055891290307044983e-01
-7.969017140567302704e-03,-1.138977706432342529e-02,-1.294474117457866669e-02,-2.796978130936622620e-02,-5.129127949476242065e-02,-8.567159064114093781e-03,3.009605221450328827e-02,5.723419412970542908e-02,6.094098836183547974e-02,-1.445658737793564796e-03
-5.045070499181747437e-02,-6.826343387365341187e-02,-8.560392074286937714e-03,2.743524033576250076e-03,-5.484239757061004639e-02,9.209111332893371582e-02,-9.149593114852905273e-02,1.076309531927108765e-01,1.259430795907974243e-01,5.188291519880294800e-02
4.033568874001502991e-02,-7.781708240509033203e-02,7.815752178430557251e-02,6.874320097267627716e-03,-1.662470586597919464e-02,5.211109295487403870e-02,-1.464098040014505386e-02,6.271172314882278442e-02,1.554243452847003937e-02,-2.611093781888484955e-02
-6.806220859289169312e-03,-8.052852749824523926e-02,7.841452211141586304e-02,4.085164517164230347e-03,-1.663118600845336914e-01,1.002272032201290131e-02,-2.404174394905567169e-02,3.918758034706115723e-02,8.365996927022933960e-02,9.749899804592132568e-02
-3.506400808691978455e-02,-3.644082695245742798e-02,-7.129205018281936646e-02,-4.205223917961120605e-02,-2.069260030984878540e-01,-7.977732270956039429e-02,-1.446468383073806763e-01,7.963797450065612793e-02,-5.191532894968986511e-02,8.984363079071044922e-02
8.977030962705612183e-02,-4.695578478276729584e-03,9.027125686407089233e-02,-2.648874931037425995e-02,-2.357255667448043823e-01,-6.910057365894317627e-02,-5.153489857912063599e-02,1.995718032121658325e-01,-8.104418963193893433e-02,2.117634415626525879e-01
1.206397116184234619e-01,-1.076338905841112137e-02,-1.522097177803516388e-02,2.565677091479301453e-02,-2.524344027042388916e-01,-7.577821612358093262e-02,-1.535029560327529907e-01,1.789969056844711304e-01,-1.162318438291549683e-01,2.534754574298858643e-01
1.008385568857192993e-01,3.043886832892894745e-02,-7.776089012622833252e-02,6.694360077381134033e-02,-1.858990788459777832e-01,-2.289705350995063782e-02,-2.230381816625595093e-01,2.052502930164337158e-01,1.329265069216489792e-02,8.275615423917770386e-02
4.401780292391777039e-02,-7.636431604623794556e-02,7.952412217855453491e-02,3.935777768492698669e-02,-1.598123610019683838e-01,-2.869102731347084045e-02,-2.151962369680404663e-01,2.019909024238586426e-01,-9.215682744979858398e-02,1.038821339607238770e-01
1.402535736560821533e-01,-4.418285936117172241e-02,-6.112651526927947998e-02,8.387857675552368164e-02,-4.786756262183189392e-02,-5.044161528348922729e-02,-1.999356597661972046e-01,2.071681469678878784e-01,-2.641688287258148193e-02,-2.081550471484661102e-02
1.501579433679580688e-01,-8.870641887187957764e-02,6.742784380912780762e-02,6.332789361476898193e-02,2.913030423223972321e-02,4.364138841629028320e-02,-1.649505496025085449e-01,1.758672744035720825e-01,2.618090808391571045e-02,6.951304525136947632e-02
4.270090535283088684e-02,-4.721009731292724609e-02,-1.551616098731756210e-02,7.291170954704284668e-02,-7.305500097572803497e-03,1.212477385997772217e-01,-1.915334314107894897e-01,5.824776366353034973e-03,1.013588085770606995e-01,-4.345612972974777222e-02
6.807599961757659912e-02,-2.277663350105285645e-02,-8.692131936550140381e-02,4.886662960052490234e-02,8.623480796813964844e-02,1.478431075811386108e-01,-1.136238947510719299e-01,-7.570554316043853760e-02,7.669116556644439697e-02,-1.418989598751068115e-01
5.868215858936309814e-02,-8.438513427972793579e-02,5.288943648338317871e-02,6.996922194957733154e-02,9.390359371900558472e-02,1.239512115716934204e-01,-8.071114122867584229e-02,-1.290881633758544922e-01,7.008845359086990356e-02,-5.498874187469482422e-02
2.399134263396263123e-02,-7.757677137851715088e-02,-4.643003456294536591e-03,-3.986357897520065308e-02,-7.968967407941818237e-02,2.126454859972000122e-01,-5.107117816805839539e-03,-5.280032381415367126e-02,1.006015539169311523e-01,-3.303021565079689026e-02
-8.512043207883834839e-02,3.306703269481658936e-02,-6.627696007490158081e-02,-5.451529100537300110e-02,-6.979541480541229248e-02,1.886506676673889160e-01,4.459304362535476685e-02,-1.182239726185798645e-01,-3.109322488307952881e-02,-2.582306973636150360e-02
-8.467020094394683838e-02,4.508035257458686829e-02,2.219531126320362091e-02,-6.406649947166442871e-02,1.010985506582073867e-04,8.881493657827377319e-02,4.461434856057167053e-02,-2.972324378788471222e-03,-2.894372865557670593e-02,-1.929108984768390656e-02
-1.376251596957445145e-02,6.844934541732072830e-03,7.306689862161874771e-03,8.222255110740661621e-02,3.181845694780349731e-02,1.587380538694560528e-03,7.049484178423881531e-03,-6.006656214594841003e-02,-6.764744222164154053e-02,7.576881349086761475e-02
-4.222490638494491577e-02,7.883260399103164673e-02,2.907473221421241760e-02,3.568800538778305054e-02,-1.503725070506334305e-02,-2.113964781165122986e-02,6.771287322044372559e-02,-4.638553783297538757e-02,-5.439408868551254272e-02,-4.626771062612533569e-02
-1.287905778735876083e-02,-7.557435333728790283e-02,4.120518639683723450e-02,-7.895857095718383789e-02,-7.848222553730010986e-02,2.130508609116077423e-02,5.705255642533302307e-02,2.363239601254463196e-02,7.768970727920532227e-02,-6.483273953199386597e-02
-7.612659782171249390e-02,7.253361493349075317e-02,7.960794493556022644e-03,2.375623583793640137e-02,3.100124746561050415e-02,-7.517176121473312378e-02,5.699803307652473450e-02,-7.889619469642639160e-02,1.973669789731502533e-02,6.489840149879455566e-02
-6.044005975127220154e-02,6.405977904796600342e-02,5.193995684385299683e-02,-6.120279803872108459e-02,-4.744924604892730713e-02,-2.246425487101078033e-03,-8.803803473711013794e-02,1.075309235602617264e-02,5.022045597434043884e-02,4.331709444522857666e-02
4.784550890326499939e-02,6.450032442808151245e-02,-2.700979821383953094e-02,8.977174758911132812e-03,-2.644819766283035278e-02,4.879047721624374390e-02,6.903801579028367996e-03,8.835119195282459259e-03,2.614136785268783569e-02,6.284435838460922241e-02
-4.673285037279129028e-02,3.856221586465835571e-02,-1.942463777959346771e-02,5.958908796310424805e-02,-7.443692535161972046e-02,-6.086037307977676392e-02,5.273580923676490784e-02,4.662415012717247009e-02,-2.243668073788285255e-03,-9.271506220102310181e-02
-3.929759562015533447e-02,-2.963943220674991608e-02,5.147713422775268555e-02,8.478417992591857910e-02,-5.731473118066787720e-02,-5.249929428100585938e-02,-5.719737708568572998e-02,1.148511469364166260e-01,4.588346555829048157e-02,-4.960820078849792480e-03
-6.222472339868545532e-02,-1.758765429258346558e-02,-4.843303933739662170e-02,4.695368185639381409e-02,-1.048316508531570435e-01,5.170051008462905884e-02,-7.227001339197158813e-02,6.319437921047210693e-02,-1.980742253363132477e-02,-9.372119605541229248e-02
3.432375937700271606e-02,-5.720360204577445984e-02,-2.332236431539058685e-02,-5.718652904033660889e-02,-5.243814736604690552e-02,3.292065113782882690e-02,1.824039965867996216e-02,4.213537275791168213e-02,1.221558079123497009e-01,-1.713457889854907990e-02
-1.083372086286544800e-01,-1.001196354627609253e-01,-7.533107697963714600e-02,-1.198210939764976501e-01,-1.961612608283758163e-03,1.511209644377231598e-02,-3.373624384403228760e-02,2.586253732442855835e-02,6.914211809635162354e-02,-1.053457483649253845e-01
-3.849809616804122925e-02,-4.432646930217742920e-02,-6.183210760354995728e-02,-1.512341499328613281e-01,2.318916283547878265e-02,1.329071819782257080e-01,-8.185213804244995117e-02,6.229908019304275513e-02,9.501601755619049072e-02,-2.131606265902519226e-02
5.380473285913467407e-02,-1.205723434686660767e-01,-2.163169533014297485e-02,-1.890525817871093750e-01,-5.081612616777420044e-03,6.569833308458328247e-02,-1.247939933091402054e-02,8.516067266464233398e-02,1.768565475940704346e-01,8.571033179759979248e-02
9.088411182165145874e-02,-1.597943529486656189e-02,-1.996625773608684540e-02,-2.478290796279907227e-01,-9.111295640468597412e-02,1.309935748577117920e-01,2.381948567926883698e-02,-2.164740860462188721e-02,2.480482496321201324e-02,6.223938986659049988e-02
-2.403622493147850037e-03,-4.197255149483680725e-02,-7.532531023025512695e-02,-1.345916092395782471e-01,-1.093498840928077698e-01,1.025628522038459778e-01,3.546566143631935120e-02,8.886282891035079956e-02,1.209520697593688965e-01,1.408190727233886719e-01
6.988408416509628296e-02,-6.496686488389968872e-02,-7.972405850887298584e-02,-2.050548233091831207e-02,-1.810332238674163818e-01,3.779338300228118896e-02,-2.537350915372371674e-02,1.133911088109016418e-01,-3.129502013325691223e-02,-1.869783736765384674e-02
8.818227070150896907e-05,9.795285761356353760e-02,3.679008781909942627e-02,2.106413990259170532e-02,-1.706325411796569824e-01,-6.514757126569747925e-02,-3.556194156408309937e-02,2.793616354465484619e-01,-1.034773439168930054e-01,-2.678329497575759888e-02
3.933157771825790405e-02,6.417306512594223022e-02,1.868794497568160295e-04,8.159196376800537109e-02,-2.092727273702621460e-01,3.940907772630453110e-03,-3.064136020839214325e-02,4.087024927139282227e-01,-8.591052889823913574e-02,1.125474460422992706e-02
4.823399707674980164e-02,3.413440287113189697e-02,3.350981324911117554e-02,1.386514306068420410e-01,-1.488095074892044067e-01,-2.604148350656032562e-02,-2.648205757141113281e-01,2.844502031803131104e-01,-1.926710754632949829e-01,5.234675481915473938e-04
8.776903152465820312e-02,-1.639546081423759460e-02,-3.574754297733306885e-02,1.447799652814865112e-01,-5.624940246343612671e-02,-1.243717782199382782e-02,-2.633266150951385498e-01,2.060787379741668701e-01,-3.471744805574417114e-02,-7.447712123394012451e-02
6.284927576780319214e-02,3.565610572695732117e-02,7.751003652811050415e-02,2.719000726938247681e-02,2.427113801240921021e-02,-1.301315128803253174e-01,-2.833986878395080566e-01,1.918959468603134155e-01,-4.638772830367088318e-02,4.898677766323089600e-02
2.972006238996982574e-02,-1.319067627191543579e-01,-4.229386523365974426e-02,1.364961862564086914e-01,5.226425454020500183e-02,-2.751781605184078217e-02,-2.190954387187957764e-01,8.718678355216979980e-02,3.607110306620597839e-02,-8.601962774991989136e-02
1.776040047407150269e-01,-7.459288835525512695e-02,-3.888877481222152710e-02,6.469608843326568604e-02,-7.022634893655776978e-02,4.661919083446264267e-03,-2.109142094850540161e-01,6.760305166244506836e-02,6.890229880809783936e-02,5.844333022832870483e-02
4.142694175243377686e-02,2.919094078242778778e-02,8.428249508142471313e-03,-4.507349058985710144e-02,-7.495070248842239380e-02,1.275042891502380371e-01,-1.100171506404876709e-01,-5.095412954688072205e-02,1.830106526613235474e-01,4.833031445741653442e-03
2.032140269875526428e-02,-5.698294192552566528e-02,-9.267032891511917114e-02,-2.987387403845787048e-02,4.262110218405723572e-02,1.248090788722038269e-01,-1.552290748804807663e-02,-8.248014375567436218e-03,1.564152538776397705e-01,-2.980701066553592682e-02
7.689329236745834351e-02,4.833117127418518066e-02,-9.055180847644805908e-02,-1.151928007602691650e-01,2.835207432508468628e-02,1.591035425662994385e-01,-3.401405364274978638e-02,-1.281311511993408203e-01,7.415222376585006714e-02,-7.233207672834396362e-02
8.422061055898666382e-02,5.960254929959774017e-03,1.689693145453929901e-02,-1.036712452769279480e-01,-1.108150277286767960e-02,1.169315129518508911e-01,2.455119043588638306e-02,-6.904162466526031494e-02,4.945429414510726929e-02,-1.995076239109039307e-02
6.918245553970336914e-02,4.152974579483270645e-03,1.488728262484073639e-02,-6.172661669552326202e-03,-3.967748582363128662e-02,4.998867958784103394e-02,-7.808888703584671021e-02,2.563292905688285828e-02,5.399718508124351501e-02,1.976889371871948242e-02
4.013465717434883118e-02,-2.586024580523371696e-03,-5.828749388456344604e-02,-3.474120423197746277e-02,5.310172680765390396e-03,2.301618084311485291e-02,-1.338674407452344894e-02,4.779022186994552612e-02,7.879138737916946411e-02,7.295554876327514648e-02
-5.117719992995262146e-02,-3.891384974122047424e-02,-5.284493416547775269e-02,6.370606273412704468e-02,3.821032121777534485e-02,8.232319727540016174e-03,-4.066960513591766357e-02,-3.719950839877128601e-02,5.651307851076126099e-02,6.281952373683452606e-03
6.131244078278541565e-02,8.422674983739852905e-02,-2.594326436519622803e-02,4.495742172002792358e-02,-4.539886862039566040e-02,3.698606044054031372e-02,2.465966902673244476e-02,3.183485940098762512e-02,-5.802524462342262268e-02,1.034616865217685699e-02
7.651866413652896881e-03,1.343315001577138901e-03,6.460471451282501221e-02,-7.665674202144145966e-04,-3.519114851951599121e-02,-7.071133702993392944e-02,3.294281288981437683e-02,4.866521432995796204e-02,-7.279291003942489624e-02,-5.777133628726005554e-02
-1.952155306935310364e-02,1.975672086700797081e-03,2.553386427462100983e-02,2.383366413414478302e-02,4.273135215044021606e-02,-2.198625355958938599e-02,3.269426152110099792e-02,-4.044980928301811218e-02,7.627281546592712402e-02,2.790524438023567200e-02
1.183291058987379074e-02,4.432734847068786621e-02,1.825242489576339722e-02,-7.803043723106384277e-02,-1.234253123402595520e-02,-6.074173003435134888e-02,1.802953146398067474e-02,-1.989710517227649689e-02,-2.567555382847785950e-02,-5.049476772546768188e-02
3.353646397590637207e-02,-4.425793513655662537e-02,-9.572061710059642792e-03,-1.150099746882915497e-02,3.586673736572265625e-02,2.640052139759063721e-02,-7.065074145793914795e-02,-9.154618717730045319e-03,4.573156312108039856e-02,-5.457632988691329956e-02
2.894758805632591248e-02,6.320467591285705566e-02,3.578805923461914062e-02,-3.907290101051330566e-02,-8.195841312408447266e-02,4.122909903526306152e-02,-4.272641986608505249e-02,3.414708748459815979e-02,7.252983283251523972e-03,6.933603435754776001e-02
-3.815202042460441589e-02,-5.555904936045408249e-03,-4.169443249702453613e-02,-1.110814884305000305e-01,-7.766450941562652588e-02,4.745651409029960632e-02,5.762988328933715820e-02,7.936097681522369385e-02,6.360580772161483765e-02,2.784836851060390472e-02
-2.905093133449554443e-02,1.820075209252536297e-03,-6.688193976879119873e-02,-1.356100589036941528e-01,-1.071080043911933899e-01,8.830367773771286011e-02,-6.282184273004531860e-02,3.877860680222511292e-02,-1.470109354704618454e-02,3.011860884726047516e-02
-5.982962436974048615e-03,-5.541946738958358765e-02,-6.923923641443252563e-02,-1.767659038305282593e-01,3.998498618602752686e-02,5.797951295971870422e-02,-1.676605828106403351e-02,8.454450219869613647e-02,6.510023027658462524e-02,8.490911126136779785e-02
4.081417247653007507e-02,1.102596614509820938e-02,-1.490002721548080444e-01,-1.659444719552993774e-01,-3.934735804796218872e-02,5.102550238370895386e-02,-5.781540274620056152e-02,1.044305413961410522e-01,1.505249142646789551e-01,9.415398538112640381e-02
2.495426498353481293e-02,-3.802660107612609863e-02,-7.491479814052581787e-02,-1.915046572685241699e-01,1.031998172402381897e-01,1.860380917787551880e-01,3.455005958676338196e-02,6.936349719762802124e-02,1.099737584590911865e-01,4.825086519122123718e-02
9.017101675271987915e-02,-7.052088156342506409e-03,-9.255352616310119629e-02,-1.651437133550643921e-01,2.847752161324024200e-02,2.001267671585083008e-01,-3.362040966749191284e-02,-3.032312542200088501e-02,1.238022446632385254e-01,4.491884633898735046e-02
9.981335699558258057e-02,-4.570015147328376770e-02,-5.684594064950942993e-02,-1.039655357599258423e-01,-5.502179730683565140e-03,1.914896816015243530e-01,-3.118641488254070282e-02,-1.341780927032232285e-02,4.324561357498168945e-02,5.189637094736099243e-02
8.115883916616439819e-02,5.075486749410629272e-02,-1.972880661487579346e-01,2.354840748012065887e-03,-1.370804011821746826e-01,7.884876430034637451e-02,3.828848898410797119e-02,1.802610754966735840e-01,4.023222625255584717e-02,-7.090222090482711792e-02
7.177744526416063309e-03,7.070268690586090088e-02,-1.610254049301147461e-01,1.040990352630615234e-01,-2.066215127706527710e-01,6.929758470505475998e-03,-1.014719679951667786e-01,2.703457772731781006e-01,-3.739042952656745911e-02,-5.654499679803848267e-02
-6.521800160408020020e-02,1.888814717531204224e-01,-5.853493884205818176e-02,9.408590942621231079e-02,-1.615555882453918457e-01,-6.781361997127532959e-02,-1.907840371131896973e-01,3.598702847957611084e-01,-6.581357866525650024e-02,-8.978216350078582764e-02
-1.132182627916336060e-01,1.466817855834960938e-01,3.211567923426628113e-02,1.534631252288818359e-01,-3.279821202158927917e-02,-1.565302014350891113e-01,-2.674733698368072510e-01,3.122601211071014404e-01,-1.619557142257690430e-01,-5.365542322397232056e-02
-6.796833872795104980e-02,-3.808620618656277657e-03,-2.918463200330734253e-02,7.038524746894836426e-02,9.543638676404953003e-02,-1.505879014730453491e-01,-1.639791429042816162e-01,2.386943250894546509e-01,-1.432285159826278687e-01,3.469087928533554077e-02
1.030141860246658325e-02,-4.010549187660217285e-02,-5.119509994983673096e-02,8.909080922603607178e-02,2.578326314687728882e-02,-1.878260374069213867e-01,-1.406733095645904541e-01,1.692168861627578735e-01,5.699001625180244446e-02,4.388278350234031677e-02
8.655116707086563110e-02,-1.986437477171421051e-03,5.157046765089035034e-02,5.779197067022323608e-02,-3.644043952226638794e-02,-1.632472723722457886e-01,-2.192316502332687378e-01,1.786400079727172852e-01,8.402329683303833008e-02,6.259357929229736328e-02
1.060070693492889404e-01,-7.296507246792316437e-03,-2.955774404108524323e-02,3.709273785352706909e-02,-3.262017155066132545e-03,-1.017164140939712524e-01,-1.028642058372497559e-01,3.079079650342464447e-02,7.591158896684646606e-02,-2.521729655563831329e-02
1.158716380596160889e-01,-9.355589747428894043e-02,6.559247523546218872e-02,-5.628716200590133667e-03,1.037220936268568039e-02,-1.133834645152091980e-01,-1.451655477285385132e-01,7.934051007032394409e-02,1.571166664361953735e-01,3.158957883715629578e-02
7.211979478597640991e-02,-7.975602895021438599e-02,-6.862688064575195312e-02,-9.933467209339141846e-02,-5.931578576564788818e-03,5.166428908705711365e-02,1.413230597972869873e-02,-2.688065171241760254e-02,5.024935677647590637e-02,-8.773545920848846436e-02
1.052208766341209412e-01,1.002155803143978119e-02,-9.491657465696334839e-02,3.582192957401275635e-02,-2.939597144722938538e-02,4.391041398048400879e-02,4.240442067384719849e-02,-1.068767085671424866e-01,1.494805961847305298e-01,-1.821858249604701996e-02
-3.045790363103151321e-04,5.659163370728492737e-02,-5.391818657517433167e-02,-8.663974702358245850e-02,4.596645012497901917e-02,1.701295524835586548e-01,-5.557787418365478516e-02,-1.293920539319515228e-02,-1.507940143346786499e-02,5.644259974360466003e-02
-8.077368885278701782e-02,-9.495237842202186584e-03,-4.728478193283081055e-02,5.420919880270957947e-02,-1.007319316267967224e-01,9.051128476858139038e-02,-1.736825145781040192e-02,-8.703905344009399414e-02,1.642035320401191711e-02,-8.033311367034912109e-02
-4.541172459721565247e-02,1.036466471850872040e-02,3.426606534048914909e-03,-4.439645260572433472e-02,-1.971372216939926147e-02,-1.535909902304410934e-02,1.974686793982982635e-02,-1.312080863863229752e-02,2.912827394902706146e-02,1.022864319384098053e-02
-8.679050952196121216e-02,-6.926717609167098999e-02,2.728667110204696655e-02,-1.495976746082305908e-02,-8.323672413825988770e-02,-6.209134683012962341e-02,-3.784924000501632690e-02,-6.626553833484649658e-02,6.712663918733596802e-02,-8.176741003990173340e-02
1.319164317101240158e-02,-6.652574986219406128e-02,-5.168997496366500854e-02,-4.065275564789772034e-02,-2.760452404618263245e-02,-1.233020983636379242e-02,-3.898672387003898621e-02,7.896227389574050903e-02,6.832358241081237793e-02,6.980255246162414551e-02
5.712991580367088318e-02,-2.800533256959170103e-04,7.694634795188903809e-02,-4.785761237144470215e-02,6.856038421392440796e-02,-8.263634517788887024e-03,-1.761932624503970146e-03,-7.364021986722946167e-02,-2.123638987541198730e-03,2.382154949009418488e-02
6.850913166999816895e-02,3.640280291438102722e-02,2.903606183826923370e-02,1.274634059518575668e-02,-1.425031106919050217e-02,-5.644299555569887161e-03,3.456158190965652466e-02,-3.542517544701695442e-03,5.962052196264266968e-02,3.170245513319969177e-02
-6.772366911172866821e-02,1.761206611990928650e-02,-3.267840668559074402e-02,-2.785317972302436829e-02,-2.503311820328235626e-02,7.640293985605239868e-02,4.286303743720054626e-02,1.007126793265342712e-01,6.074439361691474915e-02,-2.626409754157066345e-02
-6.681756675243377686e-02,3.076431341469287872e-03,-6.982303690165281296e-03,5.989326629787683487e-03,3.119783289730548859e-02,-4.813642799854278564e-02,-4.171749576926231384e-02,1.031330376863479614e-01,1.509770657867193222e-02,-1.972333900630474091e-02
-7.293032109737396240e-02,8.075772784650325775e-03,-1.023649871349334717e-01,3.573196008801460266e-02,5.177632346749305725e-02,1.876756548881530762e-02,-5.346298217773437500e-02,9.496020153164863586e-03,-2.871677279472351074e-02,-5.366921052336692810e-02
-3.008134849369525909e-02,2.494241297245025635e-02,-4.503884352743625641e-03,-2.279553189873695374e-02,3.509875759482383728e-02,-4.696167260408401489e-02,6.279739737510681152e-02,1.085687428712844849e-01,5.930294096469879150e-02,2.320995554327964783e-03
-2.590665407478809357e-02,-1.049258261919021606e-01,-7.319680601358413696e-02,-1.141917034983634949e-01,2.976128831505775452e-02,4.682211950421333313e-02,5.840596929192543030e-02,6.824875622987747192e-02,1.440369933843612671e-01,1.119746491312980652e-01
3.239790722727775574e-02,2.139352634549140930e-02,-1.917904317378997803e-01,-1.773637086153030396e-01,-1.534512080252170563e-02,1.313929259777069092e-01,1.131482142955064774e-02,7.005315274000167847e-02,3.816312551498413086e-02,1.024324670433998108e-01
-2.939491719007492065e-02,-7.838586717844009399e-02,-2.196363210678100586e-01,-2.853649854660034180e-01,4.608146473765373230e-02,7.975824177265167236e-02,5.006567016243934631e-02,-2.300267107784748077e-02,4.689563810825347900e-02,1.203267201781272888e-01
-1.236080005764961243e-02,-1.538895666599273682e-01,-2.397882193326950073e-01,-1.919138729572296143e-01,1.456584185361862183e-01,2.242940366268157959e-01,-1.619815593585371971e-04,-7.993041723966598511e-02,7.574032992124557495e-02,1.480867713689804077e-01
1.182063072919845581e-01,-1.512843817472457886e-01,-2.520007193088531494e-01,-1.897460222244262695e-01,1.759615540504455566e-01,2.133612185716629028e-01,9.409062564373016357e-02,-1.795504391193389893e-01,1.025080308318138123e-01,6.331607699394226074e-02
6.028723716735839844e-02,4.263018723577260971e-03,-2.585224509239196777e-01,-3.554696962237358093e-02,9.114582836627960205e-02,2.144674360752105713e-01,5.815481767058372498e-02,-6.102260202169418335e-02,8.361051231622695923e-02,-1.260551363229751587e-01
-1.386193186044692993e-02,4.995809867978096008e-02,-2.324629426002502441e-01,9.552723169326782227e-02,-6.422504037618637085e-02,8.402946591377258301e-02,4.414125531911849976e-02,2.460527606308460236e-02,4.623113572597503662e-02,-5.636674910783767700e-02
-1.610189080238342285e-01,8.595195412635803223e-02,-1.191270500421524048e-01,1.644739806652069092e-01,-1.387218683958053589e-01,7.170147448778152466e-02,-1.171057969331741333e-01,2.846363782882690430e-01,-1.247555017471313477e-02,-1.193434298038482666e-01
-8.057101815938949585e-02,2.234263718128204346e-01,-1.788446903228759766e-01,1.024976149201393127e-01,-8.287434279918670654e-02,2.575168013572692871e-02,-1.272361874580383301e-01,2.204659432172775269e-01,-1.335758417844772339e-01,1.412967802025377750e-03
-1.190885007381439209e-01,3.397236019372940063e-02,-5.986716970801353455e-02,1.921934783458709717e-01,3.504648432135581970e-02,-1.812785118818283081e-01,-1.370377838611602783e-01,1.113255470991134644e-01,-7.788249291479587555e-03,1.640767231583595276e-02
-7.339355349540710449e-02,-1.065058335661888123e-01,1.745774596929550171e-02,1.319036185741424561e-01,1.591097712516784668e-01,-1.772464066743850708e-01,-1.202322542667388916e-01,1.822315901517868042e-01,3.339685127139091492e-02,1.468108594417572021e-01
1.407724339514970779e-02,-5.005283281207084656e-02,2.780317142605781555e-02,6.874482333660125732e-02,5.950083956122398376e-02,-2.043741643428802490e-01,-1.573232710361480713e-01,1.104830801486968994e-01,8.201031386852264404e-02,5.915269255638122559e-02
-3.492185100913047791e-02,4.415090195834636688e-03,-5.413370952010154724e-02,5.197975784540176392e-02,-5.453200638294219971e-02,-1.653736531734466553e-01,-9.926657378673553467e-02,3.701781108975410461e-02,-1.229322794824838638e-02,1.986653506755828857e-01
1.652964055538177490e-01,-5.036683008074760437e-02,-6.823383271694183350e-02,7.257270812988281250e-02,-3.193548321723937988e-02,-2.096061557531356812e-01,-1.064890250563621521e-01,4.229792580008506775e-02,1.558136492967605591e-01,5.813816189765930176e-02
8.680883795022964478e-02,-1.037794426083564758e-01,3.859976306557655334e-02,3.062983229756355286e-02,-5.408305674791336060e-03,-2.017357051372528076e-01,-1.167114824056625366e-02,-2.641106396913528442e-02,8.314322680234909058e-02,1.921490207314491272e-02
1.520407795906066895e-01,5.553925409913063049e-02,-6.109484285116195679e-02,1.691327430307865143e-02,1.155800651758909225e-02,-1.422935724258422852e-01,1.916567608714103699e-02,8.408553898334503174e-02,2.624014578759670258e-02,8.995491266250610352e-02
1.136396825313568115e-01,-5.610113963484764099e-02,-2.513989247381687164e-02,1.323701720684766769e-02,-1.122601330280303955e-02,-1.204386875033378601e-01,-5.343554541468620300e-02,-9.429727494716644287e-02,1.326879262924194336e-01,3.468087315559387207e-02
7.347150892019271851e-02,9.484538808465003967e-03,3.919993713498115540e-02,-7.516246289014816284e-02,5.846548452973365784e-02,-3.314347192645072937e-02,-6.414300948381423950e-02,-5.217300355434417725e-02,-1.429272722452878952e-02,-3.564827516674995422e-02
-3.584398701786994934e-02,6.572485435754060745e-03,1.051462907344102859e-02,1.403930131345987320e-02,-5.957278236746788025e-02,7.190251350402832031e-02,6.006731465458869934e-02,-8.660274744033813477e-02,-1.018073409795761108e-02,2.361599355936050415e-03
1.010618731379508972e-02,-6.437296979129314423e-03,-5.544253811240196228e-02,-7.214388251304626465e-02,7.061871886253356934e-02,1.494127325713634491e-02,-7.138232141733169556e-02,1.216347143054008484e-02,-4.554317146539688110e-02,-5.251604691147804260e-02
3.778221458196640015e-02,4.768412932753562927e-02,-3.895308077335357666e-02,6.410606205463409424e-02,-1.031135674566030502e-02,8.284395188093185425e-02,-4.099803045392036438e-02,4.572865739464759827e-02,6.048142537474632263e-02,-4.194701835513114929e-02
-5.754727125167846680e-02,-7.261276990175247192e-02,5.662016104906797409e-03,-8.486960083246231079e-02,-6.619782745838165283e-02,-5.631701648235321045e-02,3.562703356146812439e-02,3.834777697920799255e-02,3.600479662418365479e-02,5.132180638611316681e-03
5.645509064197540283e-02,-4.314022138714790344e-02,-1.374738011509180069e-02,8.590178191661834717e-02,-3.168760985136032104e-02,3.999693784862756729e-03,6.005460023880004883e-02,8.223731070756912231e-02,2.872240170836448669e-02,4.133653640747070312e-02
-8.472652733325958252e-02,7.280036807060241699e-02,2.547689341008663177e-02,-2.642488107085227966e-02,-5.855016410350799561e-02,8.063297718763351440e-02,-4.178180545568466187e-02,-6.619024276733398438e-02,-3.893350064754486084e-02,3.208630159497261047e-02
7.626496255397796631e-02,-1.573674753308296204e-02,-4.723647236824035645e-02,-4.709734022617340088e-02,2.867777086794376373e-02,-8.882238715887069702e-02,5.757916718721389771e-02,3.760899184271693230e-03,-2.071656659245491028e-02,-4.467126354575157166e-02
-4.602565243840217590e-02,-1.302445586770772934e-02,5.130131170153617859e-02,-5.388691276311874390e-02,-3.142370656132698059e-02,-6.235765293240547180e-03,-8.806686103343963623e-02,-2.085033990442752838e-02,-8.638563752174377441e-02,-1.892042532563209534e-02
8.567596785724163055e-03,-4.924584552645683289e-02,-4.341602325439453125e-03,-2.420492097735404968e-02,-3.556484729051589966e-02,-4.412734415382146835e-03,-4.461736604571342468e-02,3.865390643477439880e-02,4.095458239316940308e-02,4.349325969815254211e-02
1.965151540935039520e-02,-1.189763471484184265e-02,-1.587609648704528809e-01,-1.087117195129394531e-01,4.936355352401733398e-02,-4.759915545582771301e-02,-6.399985402822494507e-03,1.633580401539802551e-02,3.474197909235954285e-02,1.256905049085617065e-01
7.478626817464828491e-02,2.322404459118843079e-02,-1.815337538719177246e-01,-1.286616027355194092e-01,8.049117028713226318e-02,1.088907197117805481e-01,-3.384822234511375427e-02,3.164475038647651672e-02,4.261280223727226257e-02,1.002270653843879700e-01
-4.635069519281387329e-03,-6.131928414106369019e-03,-2.402492910623550415e-01,-1.476267278194427490e-01,6.954187154769897461e-02,1.418537199497222900e-01,-3.199778869748115540e-02,-4.208409413695335388e-02,1.018026098608970642e-01,7.230178266763687134e-02
9.517148882150650024e-02,-3.111506067216396332e-02,-2.051426172256469727e-01,-1.360391527414321899e-01,1.984020769596099854e-01,1.448423862457275391e-01,1.268823146820068359e-01,-6.620705593377351761e-03,-7.015047012828290462e-04,1.658809483051300049e-01
-2.822286635637283325e-02,-7.412839680910110474e-02,-1.589773595333099365e-01,-6.187312304973602295e-02,2.343162298202514648e-01,2.285285145044326782e-01,4.487836733460426331e-03,-2.229414582252502441e-01,7.177945971488952637e-02,1.175612956285476685e-01
5.425919219851493835e-02,-1.242470666766166687e-01,-1.843698024749755859e-01,-9.750220924615859985e-02,1.618286222219467163e-01,3.217924237251281738e-01,7.540382444858551025e-02,-2.941895723342895508e-01,7.389972358942031860e-02,2.999458461999893188e-02
-5.130773782730102539e-02,-6.710579246282577515e-02,-3.073890805244445801e-01,5.653657764196395874e-02,-4.951658193022012711e-03,2.438685297966003418e-01,1.571106165647506714e-01,-2.054712176322937012e-01,2.395851016044616699e-01,-1.092156320810317993e-01
-1.799207367002964020e-02,-1.748725958168506622e-02,-1.452976912260055542e-01,1.779059320688247681e-01,-5.958587303757667542e-02,1.821117997169494629e-01,5.271325260400772095e-02,4.477507993578910828e-02,1.020456627011299133e-01,1.724994182586669922e-02
-1.710943430662155151e-01,2.191123515367507935e-01,-2.513162493705749512e-01,8.390907943248748779e-02,-7.462530583143234253e-02,-5.702484399080276489e-03,-1.221105232834815979e-01,2.306256145238876343e-01,1.225836295634508133e-02,1.443231198936700821e-02
-2.512476146221160889e-01,2.073728740215301514e-01,-9.910654276609420776e-02,1.206725835800170898e-01,5.410962924361228943e-02,-6.671234965324401855e-02,-1.288183182477951050e-01,1.575627624988555908e-01,-1.716910488903522491e-02,5.319409072399139404e-02
-2.472980618476867676e-01,1.894906349480152130e-02,-1.882990077137947083e-02,1.027834415435791016e-01,9.014383703470230103e-02,-9.374847263097763062e-02,-6.577702611684799194e-02,-4.623167216777801514e-02,-6.682318449020385742e-02,1.072736009955406189e-01
-2.451641112565994263e-01,-7.557792961597442627e-02,-8.916828781366348267e-03,1.223775744438171387e-01,1.820608973503112793e-01,-9.397354722023010254e-02,-1.147471591830253601e-01,1.264684349298477173e-01,6.650514155626296997e-02,1.963581740856170654e-01
-1.265551242977380753e-02,-3.615969093516469002e-03,2.978826686739921570e-02,-1.169379893690347672e-02,3.501127660274505615e-02,-2.007613778114318848e-01,2.940812846645712852e-03,5.279553681612014771e-02,1.277883304283022881e-03,1.277837008237838745e-01
-6.105439364910125732e-02,-1.410301029682159424e-01,-7.692828774452209473e-02,-3.399321436882019043e-02,5.791676789522171021e-02,-1.798796504735946655e-01,-9.030384570360183716e-02,1.693239063024520874e-01,-1.274563092738389969e-02,2.309442609548568726e-01
1.242021545767784119e-01,-6.341813504695892334e-02,1.084429863840341568e-02,-9.168310463428497314e-02,-9.698312729597091675e-02,-2.604701519012451172e-01,-1.158192753791809082e-02,1.314155310392379761e-01,4.871531203389167786e-02,1.039776355028152466e-01
1.919487267732620239e-01,-1.508674584329128265e-03,-6.356957554817199707e-02,-9.998954087495803833e-02,-6.570112425833940506e-03,-1.507078260183334351e-01,5.318132415413856506e-02,1.347835268825292587e-02,3.776180744171142578e-02,1.035765483975410461e-01
8.340727537870407104e-02,-7.709416747093200684e-02,3.114242851734161377e-02,-8.975650183856487274e-03,-5.227519944310188293e-02,-1.490709334611892700e-01,6.002834811806678772e-02,5.249564349651336670e-02,-1.016754657030105591e-02,7.670707255601882935e-02
9.582094848155975342e-02,4.003485664725303650e-02,-5.852304026484489441e-02,-2.983426861464977264e-02,3.271989896893501282e-02,-1.814953982830047607e-02,7.271037995815277100e-02,-1.199109759181737900e-02,5.171600729227066040e-02,1.474271994084119797e-03
4.532122984528541565e-02,3.107393160462379456e-02,6.658607721328735352e-02,-5.761925131082534790e-02,-8.116753399372100830e-02,-7.367055118083953857e-02,-1.944068446755409241e-02,-2.734197303652763367e-03,-6.682661175727844238e-02,-5.904814973473548889e-02
-5.625346675515174866e-02,2.485955692827701569e-02,8.439508080482482910e-02,-5.752559518441557884e-04,-1.684050261974334717e-02,-5.887842178344726562e-02,7.597910612821578979e-02,5.017869174480438232e-02,-3.007408976554870605e-02,-6.331470608711242676e-02
-7.522320747375488281e-02,-8.016018569469451904e-02,-5.484833195805549622e-02,-4.220791533589363098e-02,-1.598582044243812561e-02,6.066767498850822449e-02,1.970371603965759277e-02,1.309591066092252731e-02,-7.670916616916656494e-02,-2.557701431214809418e-03
4.314055293798446655e-02,6.194834411144256592e-02,8.883901871740818024e-03,-2.090187929570674896e-02,5.621158704161643982e-02,-7.653873413801193237e-03,-6.097001209855079651e-02,9.409097954630851746e-03,-7.245153188705444336e-02,4.787187650799751282e-02
8.552397787570953369e-02,-2.975965477526187897e-02,5.131866782903671265e-02,4.947502166032791138e-03,3.075439110398292542e-02,-7.671505957841873169e-02,-7.217979524284601212e-03,-6.788268685340881348e-02,-1.788317225873470306e-02,-7.122654467821121216e-02
-3.285962715744972229e-02,-7.509804517030715942e-02,-7.873687148094177246e-02,-2.854391932487487793e-02,1.616226322948932648e-02,-5.140849854797124863e-03,3.272707760334014893e-02,3.121092170476913452e-02,8.331577479839324951e-02,-2.227810211479663849e-02
4.405013471841812134e-02,-6.204291805624961853e-02,-7.506639510393142700e-02,-5.150565505027770996e-02,2.068061940371990204e-02,-7.840970903635025024e-02,-5.790095776319503784e-03,-1.323220669291913509e-03,-4.803112149238586426e-02,7.550261169672012329e-02
-5.049230367148993537e-06,3.952648863196372986e-02,7.906364649534225464e-02,-8.326051384210586548e-02,-8.653131127357482910e-02,-3.388678655028343201e-02,8.220791816711425781e-02,2.579243155196309090e-03,4.484563320875167847e-02,7.267851382493972778e-03
-3.783118352293968201e-02,1.339137554168701172e-02,2.565589919686317444e-02,6.393221672624349594e-03,-4.861532151699066162e-02,1.391246914863586426e-02,5.433216691017150879e-03,-1.325321197509765625e-02,2.409420348703861237e-02,6.217712163925170898e-02
6.396328657865524292e-02,-6.849103420972824097e-02,-7.259073853492736816e-02,-7.363156229257583618e-02,2.245209552347660065e-02,6.403765082359313965e-02,-9.021533280611038208e-02,3.151496872305870056e-02,-1.867410726845264435e-02,2.613975852727890015e-02
3.466589376330375671e-02,-1.157494261860847473e-03,-1.630056798458099365e-01,-1.110072284936904907e-01,7.660329341888427734e-02,2.427906729280948639e-02,-3.839935734868049622e-02,4.280231893062591553e-02,-1.170312613248825073e-01,1.318239271640777588e-01
1.897156937047839165e-03,-8.378116041421890259e-02,-9.410180151462554932e-02,-1.413479745388031006e-01,7.113935053348541260e-02,4.015041142702102661e-02,3.516973555088043213e-02,2.194301411509513855e-02,-6.634736433625221252e-03,1.773693710565567017e-01
-1.678693294525146484e-02,-3.802337124943733215e-02,-1.290197819471359253e-01,-1.643047928810119629e-01,2.243066281080245972e-01,2.269778773188591003e-02,-8.205980062484741211e-03,2.449719980359077454e-02,-1.425040811300277710e-01,6.358336657285690308e-02
7.301788777112960815e-02,-1.325915753841400146e-01,-1.696350276470184326e-01,-6.659604609012603760e-02,2.182086557149887085e-01,1.695835888385772705e-01,1.059380248188972473e-01,-1.275774836540222168e-01,-3.498648107051849365e-02,8.919230848550796509e-02
1.368539035320281982e-01,-1.044981107115745544e-01,-2.493907213211059570e-01,-7.503894716501235962e-02,2.758629024028778076e-01,2.229853570461273193e-01,4.308602586388587952e-02,-2.281826436519622803e-01,1.062406599521636963e-02,1.112521812319755554e-01
7.965341210365295410e-02,-1.264529675245285034e-01,-1.395550817251205444e-01,3.278443217277526855e-02,2.139377146959304810e-01,2.782912254333496094e-01,1.303771287202835083e-01,-4.847132861614227295e-01,2.220105612650513649e-03,-1.497960370033979416e-02
-9.302471578121185303e-02,-1.079677417874336243e-02,-1.280576288700103760e-01,6.149354204535484314e-02,-1.071726344525814056e-02,1.481047123670578003e-01,2.170562930405139923e-02,-3.511498868465423584e-01,2.591114640235900879e-01,-4.365338012576103210e-02
-1.761729270219802856e-01,-1.459143031388521194e-02,-1.597278565168380737e-01,1.827648878097534180e-01,-3.520078957080841064e-02,1.536941379308700562e-01,-8.625478297472000122e-02,-1.313704848289489746e-01,1.001357659697532654e-01,2.400051429867744446e-02
-2.879247069358825684e-01,1.187580451369285583e-01,-6.741780787706375122e-02,1.787981986999511719e-01,-1.153430566191673279e-01,6.133329495787620544e-02,-6.825677305459976196e-02,1.226238757371902466e-01,1.347323805093765259e-01,1.690998822450637817e-01
-2.535665929317474365e-01,8.429130911827087402e-02,-1.673427224159240723e-01,7.537025213241577148e-02,1.057007759809494019e-01,-1.475443243980407715e-01,-7.030154764652252197e-02,6.264906376600265503e-02,1.230124384164810181e-01,2.095225602388381958e-01
-2.440088689327239990e-01,2.997324243187904358e-02,-8.237838000059127808e-02,1.065673232078552246e-01,1.022597700357437134e-01,-1.457261145114898682e-01,-1.581778377294540405e-02,-7.033792324364185333e-03,5.691351369023323059e-02,2.556652426719665527e-01
-2.189885675907135010e-01,-6.150703504681587219e-02,-4.621827974915504456e-02,1.229187101125717163e-01,1.252423077821731567e-01,-1.539235711097717285e-01,9.263007342815399170e-02,-6.330541521310806274e-02,-3.832482546567916870e-02,2.237677127122879028e-01
-1.024874374270439148e-01,-1.211720108985900879e-01,-8.001331239938735962e-03,-6.650604773312807083e-03,5.062009021639823914e-02,-1.276973634958267212e-01,-6.186428666114807129e-02,1.147370040416717529e-01,5.127754807472229004e-02,1.849620342254638672e-01
-4.848704207688570023e-03,-4.429603740572929382e-02,2.692924067378044128e-02,6.901453249156475067e-03,1.039554458111524582e-02,-7.909908890724182129e-02,-3.999899327754974365e-02,1.055760085582733154e-01,-1.292673521675169468e-03,7.242023944854736328e-02
3.302761912345886230e-02,-4.466474521905183792e-03,-8.647339046001434326e-02,6.836647633463144302e-03,1.593589596450328827e-02,-8.083619922399520874e-02,1.066902205348014832e-01,4.758236184716224670e-02,1.063162647187709808e-02,7.163639366626739502e-02
1.539139598608016968e-01,3.082890622317790985e-02,-8.843939006328582764e-02,-1.023566275835037231e-01,3.927921876311302185e-02,-5.513472482562065125e-02,1.465468108654022217e-01,-4.530722275376319885e-02,7.690778933465480804e-03,-2.901285327970981598e-02
1.667279005050659180e-01,-4.777965322136878967e-02,-1.223458945751190186e-01,-2.733357809484004974e-02,4.006149247288703918e-02,-5.123496800661087036e-02,9.012768417596817017e-02,4.172485787421464920e-03,-8.226266130805015564e-03,9.718642570078372955e-03
2.209830880165100098e-01,-2.736829221248626709e-02,-1.245580390095710754e-01,2.738865651190280914e-02,-3.590917214751243591e-02,-1.148149743676185608e-01,1.195490807294845581e-01,-9.953133761882781982e-02,3.328030556440353394e-02,-1.095838099718093872e-01
8.644169569015502930e-02,-6.712726899422705173e-04,-2.807019464671611786e-02,-4.632634669542312622e-02,-4.961554892361164093e-03,-9.699276089668273926e-02,7.616825401782989502e-02,-9.336969256401062012e-02,-3.060185723006725311e-02,-7.004823535680770874e-02
2.111091092228889465e-02,8.224522322416305542e-02,-3.348518162965774536e-02,-5.274895578622817993e-02,2.628603717312216759e-03,2.358658425509929657e-02,-7.491140067577362061e-02,5.547183007001876831e-02,-3.229941800236701965e-02,4.966456070542335510e-02
-5.277443304657936096e-02,7.471165806055068970e-02,-1.190035138279199600e-02,6.801747367717325687e-04,9.679103270173072815e-03,-2.395493723452091217e-02,-8.124575018882751465e-02,-7.986364513635635376e-02,-3.594386950135231018e-02,2.033531479537487030e-02
